digraph Tree {
node [shape=box] ;
0 [label="X[20211] <= 0.5\ngini = 0.462\nsamples = 58230\nvalue = [37180, 21050]"] ;
1 [label="X[20215] <= 0.5\ngini = 0.5\nsamples = 41151\nvalue = [20642, 20509]"] ;
0 -> 1 [labeldistance=2.5, labelangle=45, headlabel="True"] ;
2 [label="X[8640] <= 0.5\ngini = 0.489\nsamples = 31828\nvalue = [13565, 18263]"] ;
1 -> 2 ;
3 [label="X[20219] <= 0.5\ngini = 0.475\nsamples = 29475\nvalue = [11435, 18040]"] ;
2 -> 3 ;
4 [label="X[20235] <= 0.5\ngini = 0.455\nsamples = 26511\nvalue = [9280, 17231]"] ;
3 -> 4 ;
5 [label="X[8842] <= 0.5\ngini = 0.428\nsamples = 23244\nvalue = [7210, 16034]"] ;
4 -> 5 ;
6 [label="X[9005] <= 0.5\ngini = 0.41\nsamples = 22342\nvalue = [6419, 15923]"] ;
5 -> 6 ;
7 [label="X[8729] <= 0.5\ngini = 0.389\nsamples = 21343\nvalue = [5646, 15697]"] ;
6 -> 7 ;
8 [label="X[20222] <= 0.5\ngini = 0.383\nsamples = 21130\nvalue = [5451, 15679]"] ;
7 -> 8 ;
9 [label="X[14712] <= 0.5\ngini = 0.362\nsamples = 18427\nvalue = [4381, 14046]"] ;
8 -> 9 ;
10 [label="X[8929] <= 0.5\ngini = 0.359\nsamples = 18347\nvalue = [4301, 14046]"] ;
9 -> 10 ;
11 [label="X[9008] <= 0.5\ngini = 0.353\nsamples = 18030\nvalue = [4119, 13911]"] ;
10 -> 11 ;
12 [label="X[8714] <= 0.5\ngini = 0.349\nsamples = 17923\nvalue = [4034, 13889]"] ;
11 -> 12 ;
13 [label="X[8797] <= 0.5\ngini = 0.344\nsamples = 17719\nvalue = [3905, 13814]"] ;
12 -> 13 ;
14 [label="X[8772] <= 0.5\ngini = 0.339\nsamples = 17580\nvalue = [3806, 13774]"] ;
13 -> 14 ;
15 [label="X[8767] <= 0.5\ngini = 0.33\nsamples = 17001\nvalue = [3544, 13457]"] ;
14 -> 15 ;
16 [label="X[11501] <= 0.5\ngini = 0.317\nsamples = 15888\nvalue = [3141, 12747]"] ;
15 -> 16 ;
17 [label="X[8778] <= 0.5\ngini = 0.313\nsamples = 15793\nvalue = [3070, 12723]"] ;
16 -> 17 ;
18 [label="X[8786] <= 0.5\ngini = 0.31\nsamples = 15713\nvalue = [3013, 12700]"] ;
17 -> 18 ;
19 [label="X[14671] <= 0.5\ngini = 0.308\nsamples = 15674\nvalue = [2977, 12697]"] ;
18 -> 19 ;
20 [label="X[8526] <= 0.5\ngini = 0.306\nsamples = 15644\nvalue = [2947, 12697]"] ;
19 -> 20 ;
21 [label="X[304] <= 0.5\ngini = 0.294\nsamples = 14563\nvalue = [2605, 11958]"] ;
20 -> 21 ;
22 [label="X[8702] <= 0.5\ngini = 0.287\nsamples = 14237\nvalue = [2474, 11763]"] ;
21 -> 22 ;
23 [label="X[8863] <= 0.5\ngini = 0.284\nsamples = 14179\nvalue = [2433, 11746]"] ;
22 -> 23 ;
24 [label="X[8869] <= 0.5\ngini = 0.301\nsamples = 12174\nvalue = [2246, 9928]"] ;
23 -> 24 ;
25 [label="X[8922] <= 0.5\ngini = 0.298\nsamples = 12115\nvalue = [2207, 9908]"] ;
24 -> 25 ;
26 [label="X[20224] <= 0.5\ngini = 0.294\nsamples = 12002\nvalue = [2150, 9852]"] ;
25 -> 26 ;
27 [label="X[8936] <= 0.5\ngini = 0.266\nsamples = 8459\nvalue = [1333, 7126]"] ;
26 -> 27 ;
28 [label="X[20228] <= 0.5\ngini = 0.258\nsamples = 8315\nvalue = [1266, 7049]"] ;
27 -> 28 ;
29 [label="X[8652] <= 0.5\ngini = 0.235\nsamples = 6621\nvalue = [902, 5719]"] ;
28 -> 29 ;
30 [label="X[9006] <= 0.5\ngini = 0.23\nsamples = 6562\nvalue = [871, 5691]"] ;
29 -> 30 ;
31 [label="X[8773] <= 0.5\ngini = 0.227\nsamples = 6531\nvalue = [853, 5678]"] ;
30 -> 31 ;
32 [label="X[20231] <= 0.5\ngini = 0.222\nsamples = 6435\nvalue = [817, 5618]"] ;
31 -> 32 ;
33 [label="X[311] <= 0.5\ngini = 0.215\nsamples = 6269\nvalue = [766, 5503]"] ;
32 -> 33 ;
34 [label="X[20234] <= 0.5\ngini = 0.212\nsamples = 6241\nvalue = [751, 5490]"] ;
33 -> 34 ;
35 [label="X[20237] <= 8.5\ngini = 0.207\nsamples = 6151\nvalue = [720, 5431]"] ;
34 -> 35 ;
36 [label="X[8713] <= 0.5\ngini = 0.223\nsamples = 5181\nvalue = [662, 4519]"] ;
35 -> 36 ;
37 [label="X[20221] <= 0.5\ngini = 0.215\nsamples = 4988\nvalue = [611, 4377]"] ;
36 -> 37 ;
38 [label="X[8836] <= 0.5\ngini = 0.227\nsamples = 4560\nvalue = [594, 3966]"] ;
37 -> 38 ;
39 [label="X[42] <= 0.5\ngini = 0.221\nsamples = 4408\nvalue = [557, 3851]"] ;
38 -> 39 ;
40 [label="X[8635] <= 0.5\ngini = 0.217\nsamples = 4354\nvalue = [540, 3814]"] ;
39 -> 40 ;
41 [label="X[13977] <= 0.5\ngini = 0.215\nsamples = 4320\nvalue = [528, 3792]"] ;
40 -> 41 ;
42 [label="X[20237] <= 3.5\ngini = 0.211\nsamples = 4277\nvalue = [514, 3763]"] ;
41 -> 42 ;
43 [label="X[20225] <= 0.5\ngini = 0.326\nsamples = 200\nvalue = [41, 159]"] ;
42 -> 43 ;
44 [label="X[20223] <= 0.5\ngini = 0.264\nsamples = 160\nvalue = [25, 135]"] ;
43 -> 44 ;
45 [label="X[20237] <= 2.5\ngini = 0.233\nsamples = 134\nvalue = [18, 116]"] ;
44 -> 45 ;
46 [label="gini = 0.124\nsamples = 30\nvalue = [2, 28]"] ;
45 -> 46 ;
47 [label="gini = 0.26\nsamples = 104\nvalue = [16, 88]"] ;
45 -> 47 ;
48 [label="gini = 0.393\nsamples = 26\nvalue = [7, 19]"] ;
44 -> 48 ;
49 [label="gini = 0.48\nsamples = 40\nvalue = [16, 24]"] ;
43 -> 49 ;
50 [label="X[8834] <= 0.5\ngini = 0.205\nsamples = 4077\nvalue = [473, 3604]"] ;
42 -> 50 ;
51 [label="X[20237] <= 6.5\ngini = 0.199\nsamples = 3897\nvalue = [437, 3460]"] ;
50 -> 51 ;
52 [label="X[8525] <= 0.5\ngini = 0.22\nsamples = 2465\nvalue = [311, 2154]"] ;
51 -> 52 ;
53 [label="X[20223] <= 0.5\ngini = 0.213\nsamples = 2336\nvalue = [283, 2053]"] ;
52 -> 53 ;
54 [label="X[8539] <= 0.5\ngini = 0.199\nsamples = 1976\nvalue = [221, 1755]"] ;
53 -> 54 ;
55 [label="X[8536] <= 0.5\ngini = 0.195\nsamples = 1944\nvalue = [213, 1731]"] ;
54 -> 55 ;
56 [label="X[8651] <= 0.5\ngini = 0.192\nsamples = 1911\nvalue = [205, 1706]"] ;
55 -> 56 ;
57 [label="X[8758] <= 0.5\ngini = 0.185\nsamples = 1799\nvalue = [186, 1613]"] ;
56 -> 57 ;
58 [label="X[157] <= 0.5\ngini = 0.181\nsamples = 1743\nvalue = [175, 1568]"] ;
57 -> 58 ;
59 [label="X[8900] <= 0.5\ngini = 0.187\nsamples = 1649\nvalue = [172, 1477]"] ;
58 -> 59 ;
60 [label="X[20220] <= 0.5\ngini = 0.182\nsamples = 1592\nvalue = [161, 1431]"] ;
59 -> 60 ;
61 [label="X[9922] <= 0.5\ngini = 0.177\nsamples = 1546\nvalue = [152, 1394]"] ;
60 -> 61 ;
62 [label="X[8915] <= 0.5\ngini = 0.181\nsamples = 1509\nvalue = [152, 1357]"] ;
61 -> 62 ;
63 [label="X[8532] <= 0.5\ngini = 0.187\nsamples = 1441\nvalue = [150, 1291]"] ;
62 -> 63 ;
64 [label="X[8867] <= 0.5\ngini = 0.18\nsamples = 1346\nvalue = [135, 1211]"] ;
63 -> 64 ;
65 [label="X[8845] <= 0.5\ngini = 0.184\nsamples = 1316\nvalue = [135, 1181]"] ;
64 -> 65 ;
66 [label="X[8768] <= 0.5\ngini = 0.188\nsamples = 1278\nvalue = [134, 1144]"] ;
65 -> 66 ;
67 [label="X[20225] <= 0.5\ngini = 0.193\nsamples = 1212\nvalue = [131, 1081]"] ;
66 -> 67 ;
68 [label="X[20236] <= 0.5\ngini = 0.179\nsamples = 904\nvalue = [90, 814]"] ;
67 -> 68 ;
69 [label="X[8527] <= 0.5\ngini = 0.171\nsamples = 818\nvalue = [77, 741]"] ;
68 -> 69 ;
70 [label="X[8517] <= 0.5\ngini = 0.165\nsamples = 785\nvalue = [71, 714]"] ;
69 -> 70 ;
71 [label="X[20212] <= 0.5\ngini = 0.156\nsamples = 728\nvalue = [62, 666]"] ;
70 -> 71 ;
72 [label="X[17454] <= 0.5\ngini = 0.166\nsamples = 679\nvalue = [62, 617]"] ;
71 -> 72 ;
73 [label="X[8523] <= 0.5\ngini = 0.172\nsamples = 652\nvalue = [62, 590]"] ;
72 -> 73 ;
74 [label="X[8699] <= 0.5\ngini = 0.164\nsamples = 609\nvalue = [55, 554]"] ;
73 -> 74 ;
75 [label="X[8520] <= 0.5\ngini = 0.157\nsamples = 581\nvalue = [50, 531]"] ;
74 -> 75 ;
76 [label="X[20237] <= 5.5\ngini = 0.151\nsamples = 547\nvalue = [45, 502]"] ;
75 -> 76 ;
77 [label="X[8531] <= 0.5\ngini = 0.129\nsamples = 331\nvalue = [23, 308]"] ;
76 -> 77 ;
78 [label="X[8515] <= 0.5\ngini = 0.114\nsamples = 297\nvalue = [18, 279]"] ;
77 -> 78 ;
79 [label="X[20214] <= 0.5\ngini = 0.098\nsamples = 270\nvalue = [14, 256]"] ;
78 -> 79 ;
80 [label="X[8533] <= 0.5\ngini = 0.119\nsamples = 221\nvalue = [14, 207]"] ;
79 -> 80 ;
81 [label="X[20230] <= 0.5\ngini = 0.104\nsamples = 182\nvalue = [10, 172]"] ;
80 -> 81 ;
82 [label="X[8957] <= 0.5\ngini = 0.088\nsamples = 151\nvalue = [7, 144]"] ;
81 -> 82 ;
83 [label="X[8514] <= 0.5\ngini = 0.065\nsamples = 119\nvalue = [4, 115]"] ;
82 -> 83 ;
84 [label="X[20237] <= 4.5\ngini = 0.089\nsamples = 86\nvalue = [4, 82]"] ;
83 -> 84 ;
85 [label="gini = 0.142\nsamples = 26\nvalue = [2, 24]"] ;
84 -> 85 ;
86 [label="gini = 0.064\nsamples = 60\nvalue = [2, 58]"] ;
84 -> 86 ;
87 [label="gini = 0.0\nsamples = 33\nvalue = [0, 33]"] ;
83 -> 87 ;
88 [label="gini = 0.17\nsamples = 32\nvalue = [3, 29]"] ;
82 -> 88 ;
89 [label="gini = 0.175\nsamples = 31\nvalue = [3, 28]"] ;
81 -> 89 ;
90 [label="gini = 0.184\nsamples = 39\nvalue = [4, 35]"] ;
80 -> 90 ;
91 [label="gini = 0.0\nsamples = 49\nvalue = [0, 49]"] ;
79 -> 91 ;
92 [label="gini = 0.252\nsamples = 27\nvalue = [4, 23]"] ;
78 -> 92 ;
93 [label="gini = 0.251\nsamples = 34\nvalue = [5, 29]"] ;
77 -> 93 ;
94 [label="X[20230] <= 0.5\ngini = 0.183\nsamples = 216\nvalue = [22, 194]"] ;
76 -> 94 ;
95 [label="X[20214] <= 0.5\ngini = 0.159\nsamples = 172\nvalue = [15, 157]"] ;
94 -> 95 ;
96 [label="X[8957] <= 0.5\ngini = 0.169\nsamples = 129\nvalue = [12, 117]"] ;
95 -> 96 ;
97 [label="gini = 0.182\nsamples = 79\nvalue = [8, 71]"] ;
96 -> 97 ;
98 [label="gini = 0.147\nsamples = 50\nvalue = [4, 46]"] ;
96 -> 98 ;
99 [label="gini = 0.13\nsamples = 43\nvalue = [3, 40]"] ;
95 -> 99 ;
100 [label="gini = 0.268\nsamples = 44\nvalue = [7, 37]"] ;
94 -> 100 ;
101 [label="gini = 0.251\nsamples = 34\nvalue = [5, 29]"] ;
75 -> 101 ;
102 [label="gini = 0.293\nsamples = 28\nvalue = [5, 23]"] ;
74 -> 102 ;
103 [label="gini = 0.273\nsamples = 43\nvalue = [7, 36]"] ;
73 -> 103 ;
104 [label="gini = 0.0\nsamples = 27\nvalue = [0, 27]"] ;
72 -> 104 ;
105 [label="gini = 0.0\nsamples = 49\nvalue = [0, 49]"] ;
71 -> 105 ;
106 [label="X[54] <= 0.5\ngini = 0.266\nsamples = 57\nvalue = [9, 48]"] ;
70 -> 106 ;
107 [label="gini = 0.342\nsamples = 32\nvalue = [7, 25]"] ;
106 -> 107 ;
108 [label="gini = 0.147\nsamples = 25\nvalue = [2, 23]"] ;
106 -> 108 ;
109 [label="gini = 0.298\nsamples = 33\nvalue = [6, 27]"] ;
69 -> 109 ;
110 [label="X[8720] <= 0.5\ngini = 0.257\nsamples = 86\nvalue = [13, 73]"] ;
68 -> 110 ;
111 [label="gini = 0.353\nsamples = 48\nvalue = [11, 37]"] ;
110 -> 111 ;
112 [label="gini = 0.1\nsamples = 38\nvalue = [2, 36]"] ;
110 -> 112 ;
113 [label="X[8533] <= 0.5\ngini = 0.231\nsamples = 308\nvalue = [41, 267]"] ;
67 -> 113 ;
114 [label="X[8531] <= 0.5\ngini = 0.212\nsamples = 274\nvalue = [33, 241]"] ;
113 -> 114 ;
115 [label="X[20237] <= 5.5\ngini = 0.227\nsamples = 245\nvalue = [32, 213]"] ;
114 -> 115 ;
116 [label="X[20237] <= 4.5\ngini = 0.26\nsamples = 150\nvalue = [23, 127]"] ;
115 -> 116 ;
117 [label="gini = 0.271\nsamples = 68\nvalue = [11, 57]"] ;
116 -> 117 ;
118 [label="gini = 0.25\nsamples = 82\nvalue = [12, 70]"] ;
116 -> 118 ;
119 [label="gini = 0.172\nsamples = 95\nvalue = [9, 86]"] ;
115 -> 119 ;
120 [label="gini = 0.067\nsamples = 29\nvalue = [1, 28]"] ;
114 -> 120 ;
121 [label="gini = 0.36\nsamples = 34\nvalue = [8, 26]"] ;
113 -> 121 ;
122 [label="X[20237] <= 5.5\ngini = 0.087\nsamples = 66\nvalue = [3, 63]"] ;
66 -> 122 ;
123 [label="gini = 0.121\nsamples = 31\nvalue = [2, 29]"] ;
122 -> 123 ;
124 [label="gini = 0.056\nsamples = 35\nvalue = [1, 34]"] ;
122 -> 124 ;
125 [label="gini = 0.051\nsamples = 38\nvalue = [1, 37]"] ;
65 -> 125 ;
126 [label="gini = 0.0\nsamples = 30\nvalue = [0, 30]"] ;
64 -> 126 ;
127 [label="X[301] <= 0.5\ngini = 0.266\nsamples = 95\nvalue = [15, 80]"] ;
63 -> 127 ;
128 [label="gini = 0.289\nsamples = 57\nvalue = [10, 47]"] ;
127 -> 128 ;
129 [label="gini = 0.229\nsamples = 38\nvalue = [5, 33]"] ;
127 -> 129 ;
130 [label="X[20237] <= 5.5\ngini = 0.057\nsamples = 68\nvalue = [2, 66]"] ;
62 -> 130 ;
131 [label="gini = 0.061\nsamples = 32\nvalue = [1, 31]"] ;
130 -> 131 ;
132 [label="gini = 0.054\nsamples = 36\nvalue = [1, 35]"] ;
130 -> 132 ;
133 [label="gini = 0.0\nsamples = 37\nvalue = [0, 37]"] ;
61 -> 133 ;
134 [label="gini = 0.315\nsamples = 46\nvalue = [9, 37]"] ;
60 -> 134 ;
135 [label="X[20237] <= 5.5\ngini = 0.311\nsamples = 57\nvalue = [11, 46]"] ;
59 -> 135 ;
136 [label="gini = 0.311\nsamples = 26\nvalue = [5, 21]"] ;
135 -> 136 ;
137 [label="gini = 0.312\nsamples = 31\nvalue = [6, 25]"] ;
135 -> 137 ;
138 [label="X[20214] <= 0.5\ngini = 0.062\nsamples = 94\nvalue = [3, 91]"] ;
58 -> 138 ;
139 [label="X[3596] <= 0.5\ngini = 0.029\nsamples = 68\nvalue = [1, 67]"] ;
138 -> 139 ;
140 [label="gini = 0.057\nsamples = 34\nvalue = [1, 33]"] ;
139 -> 140 ;
141 [label="gini = 0.0\nsamples = 34\nvalue = [0, 34]"] ;
139 -> 141 ;
142 [label="gini = 0.142\nsamples = 26\nvalue = [2, 24]"] ;
138 -> 142 ;
143 [label="gini = 0.316\nsamples = 56\nvalue = [11, 45]"] ;
57 -> 143 ;
144 [label="X[20237] <= 5.5\ngini = 0.282\nsamples = 112\nvalue = [19, 93]"] ;
56 -> 144 ;
145 [label="gini = 0.212\nsamples = 58\nvalue = [7, 51]"] ;
144 -> 145 ;
146 [label="gini = 0.346\nsamples = 54\nvalue = [12, 42]"] ;
144 -> 146 ;
147 [label="gini = 0.367\nsamples = 33\nvalue = [8, 25]"] ;
55 -> 147 ;
148 [label="gini = 0.375\nsamples = 32\nvalue = [8, 24]"] ;
54 -> 148 ;
149 [label="X[20237] <= 5.5\ngini = 0.285\nsamples = 360\nvalue = [62, 298]"] ;
53 -> 149 ;
150 [label="X[8766] <= 0.5\ngini = 0.363\nsamples = 193\nvalue = [46, 147]"] ;
149 -> 150 ;
151 [label="X[8514] <= 0.5\ngini = 0.407\nsamples = 155\nvalue = [44, 111]"] ;
150 -> 151 ;
152 [label="X[8707] <= 0.5\ngini = 0.419\nsamples = 114\nvalue = [34, 80]"] ;
151 -> 152 ;
153 [label="X[20237] <= 4.5\ngini = 0.407\nsamples = 81\nvalue = [23, 58]"] ;
152 -> 153 ;
154 [label="gini = 0.36\nsamples = 34\nvalue = [8, 26]"] ;
153 -> 154 ;
155 [label="gini = 0.435\nsamples = 47\nvalue = [15, 32]"] ;
153 -> 155 ;
156 [label="gini = 0.444\nsamples = 33\nvalue = [11, 22]"] ;
152 -> 156 ;
157 [label="gini = 0.369\nsamples = 41\nvalue = [10, 31]"] ;
151 -> 157 ;
158 [label="gini = 0.1\nsamples = 38\nvalue = [2, 36]"] ;
150 -> 158 ;
159 [label="X[8766] <= 0.5\ngini = 0.173\nsamples = 167\nvalue = [16, 151]"] ;
149 -> 159 ;
160 [label="X[11494] <= 0.5\ngini = 0.202\nsamples = 140\nvalue = [16, 124]"] ;
159 -> 160 ;
161 [label="X[8645] <= 0.5\ngini = 0.238\nsamples = 94\nvalue = [13, 81]"] ;
160 -> 161 ;
162 [label="gini = 0.33\nsamples = 48\nvalue = [10, 38]"] ;
161 -> 162 ;
163 [label="gini = 0.122\nsamples = 46\nvalue = [3, 43]"] ;
161 -> 163 ;
164 [label="gini = 0.122\nsamples = 46\nvalue = [3, 43]"] ;
160 -> 164 ;
165 [label="gini = 0.0\nsamples = 27\nvalue = [0, 27]"] ;
159 -> 165 ;
166 [label="X[20237] <= 5.5\ngini = 0.34\nsamples = 129\nvalue = [28, 101]"] ;
52 -> 166 ;
167 [label="X[20237] <= 4.5\ngini = 0.278\nsamples = 72\nvalue = [12, 60]"] ;
166 -> 167 ;
168 [label="gini = 0.238\nsamples = 29\nvalue = [4, 25]"] ;
167 -> 168 ;
169 [label="gini = 0.303\nsamples = 43\nvalue = [8, 35]"] ;
167 -> 169 ;
170 [label="gini = 0.404\nsamples = 57\nvalue = [16, 41]"] ;
166 -> 170 ;
171 [label="X[20225] <= 0.5\ngini = 0.16\nsamples = 1432\nvalue = [126, 1306]"] ;
51 -> 171 ;
172 [label="X[8514] <= 0.5\ngini = 0.191\nsamples = 955\nvalue = [102, 853]"] ;
171 -> 172 ;
173 [label="X[20229] <= 0.5\ngini = 0.174\nsamples = 862\nvalue = [83, 779]"] ;
172 -> 173 ;
174 [label="X[8890] <= 0.5\ngini = 0.204\nsamples = 573\nvalue = [66, 507]"] ;
173 -> 174 ;
175 [label="X[20214] <= 0.5\ngini = 0.229\nsamples = 485\nvalue = [64, 421]"] ;
174 -> 175 ;
176 [label="X[8905] <= 0.5\ngini = 0.201\nsamples = 397\nvalue = [45, 352]"] ;
175 -> 176 ;
177 [label="X[8757] <= 0.5\ngini = 0.217\nsamples = 363\nvalue = [45, 318]"] ;
176 -> 177 ;
178 [label="X[8523] <= 0.5\ngini = 0.205\nsamples = 337\nvalue = [39, 298]"] ;
177 -> 178 ;
179 [label="X[8845] <= 0.5\ngini = 0.218\nsamples = 306\nvalue = [38, 268]"] ;
178 -> 179 ;
180 [label="X[20230] <= 0.5\ngini = 0.232\nsamples = 269\nvalue = [36, 233]"] ;
179 -> 180 ;
181 [label="X[8645] <= 0.5\ngini = 0.216\nsamples = 243\nvalue = [30, 213]"] ;
180 -> 181 ;
182 [label="X[8915] <= 0.5\ngini = 0.229\nsamples = 212\nvalue = [28, 184]"] ;
181 -> 182 ;
183 [label="X[20218] <= 0.5\ngini = 0.246\nsamples = 167\nvalue = [24, 143]"] ;
182 -> 183 ;
184 [label="X[20237] <= 7.5\ngini = 0.23\nsamples = 136\nvalue = [18, 118]"] ;
183 -> 184 ;
185 [label="X[20223] <= 0.5\ngini = 0.215\nsamples = 98\nvalue = [12, 86]"] ;
184 -> 185 ;
186 [label="gini = 0.209\nsamples = 59\nvalue = [7, 52]"] ;
185 -> 186 ;
187 [label="gini = 0.224\nsamples = 39\nvalue = [5, 34]"] ;
185 -> 187 ;
188 [label="gini = 0.266\nsamples = 38\nvalue = [6, 32]"] ;
184 -> 188 ;
189 [label="gini = 0.312\nsamples = 31\nvalue = [6, 25]"] ;
183 -> 189 ;
190 [label="gini = 0.162\nsamples = 45\nvalue = [4, 41]"] ;
182 -> 190 ;
191 [label="gini = 0.121\nsamples = 31\nvalue = [2, 29]"] ;
181 -> 191 ;
192 [label="gini = 0.355\nsamples = 26\nvalue = [6, 20]"] ;
180 -> 192 ;
193 [label="gini = 0.102\nsamples = 37\nvalue = [2, 35]"] ;
179 -> 193 ;
194 [label="gini = 0.062\nsamples = 31\nvalue = [1, 30]"] ;
178 -> 194 ;
195 [label="gini = 0.355\nsamples = 26\nvalue = [6, 20]"] ;
177 -> 195 ;
196 [label="gini = 0.0\nsamples = 34\nvalue = [0, 34]"] ;
176 -> 196 ;
197 [label="X[8802] <= 0.5\ngini = 0.339\nsamples = 88\nvalue = [19, 69]"] ;
175 -> 197 ;
198 [label="gini = 0.379\nsamples = 59\nvalue = [15, 44]"] ;
197 -> 198 ;
199 [label="gini = 0.238\nsamples = 29\nvalue = [4, 25]"] ;
197 -> 199 ;
200 [label="gini = 0.044\nsamples = 88\nvalue = [2, 86]"] ;
174 -> 200 ;
201 [label="X[8527] <= 0.5\ngini = 0.111\nsamples = 289\nvalue = [17, 272]"] ;
173 -> 201 ;
202 [label="X[17548] <= 0.5\ngini = 0.127\nsamples = 249\nvalue = [17, 232]"] ;
201 -> 202 ;
203 [label="X[8533] <= 0.5\ngini = 0.149\nsamples = 198\nvalue = [16, 182]"] ;
202 -> 203 ;
204 [label="X[8957] <= 0.5\ngini = 0.161\nsamples = 170\nvalue = [15, 155]"] ;
203 -> 204 ;
205 [label="X[20237] <= 7.5\ngini = 0.1\nsamples = 76\nvalue = [4, 72]"] ;
204 -> 205 ;
206 [label="gini = 0.087\nsamples = 44\nvalue = [2, 42]"] ;
205 -> 206 ;
207 [label="gini = 0.117\nsamples = 32\nvalue = [2, 30]"] ;
205 -> 207 ;
208 [label="X[20237] <= 7.5\ngini = 0.207\nsamples = 94\nvalue = [11, 83]"] ;
204 -> 208 ;
209 [label="gini = 0.263\nsamples = 45\nvalue = [7, 38]"] ;
208 -> 209 ;
210 [label="gini = 0.15\nsamples = 49\nvalue = [4, 45]"] ;
208 -> 210 ;
211 [label="gini = 0.069\nsamples = 28\nvalue = [1, 27]"] ;
203 -> 211 ;
212 [label="gini = 0.038\nsamples = 51\nvalue = [1, 50]"] ;
202 -> 212 ;
213 [label="gini = 0.0\nsamples = 40\nvalue = [0, 40]"] ;
201 -> 213 ;
214 [label="X[20229] <= 0.5\ngini = 0.325\nsamples = 93\nvalue = [19, 74]"] ;
172 -> 214 ;
215 [label="gini = 0.348\nsamples = 49\nvalue = [11, 38]"] ;
214 -> 215 ;
216 [label="gini = 0.298\nsamples = 44\nvalue = [8, 36]"] ;
214 -> 216 ;
217 [label="X[8533] <= 0.5\ngini = 0.096\nsamples = 477\nvalue = [24, 453]"] ;
171 -> 217 ;
218 [label="X[8810] <= 0.5\ngini = 0.076\nsamples = 452\nvalue = [18, 434]"] ;
217 -> 218 ;
219 [label="X[8933] <= 0.5\ngini = 0.06\nsamples = 420\nvalue = [13, 407]"] ;
218 -> 219 ;
220 [label="X[9961] <= 0.5\ngini = 0.047\nsamples = 370\nvalue = [9, 361]"] ;
219 -> 220 ;
221 [label="X[20237] <= 7.5\ngini = 0.04\nsamples = 342\nvalue = [7, 335]"] ;
220 -> 221 ;
222 [label="X[8514] <= 0.5\ngini = 0.063\nsamples = 214\nvalue = [7, 207]"] ;
221 -> 222 ;
223 [label="X[8689] <= 0.5\ngini = 0.074\nsamples = 182\nvalue = [7, 175]"] ;
222 -> 223 ;
224 [label="X[8768] <= 0.5\ngini = 0.084\nsamples = 137\nvalue = [6, 131]"] ;
223 -> 224 ;
225 [label="gini = 0.096\nsamples = 79\nvalue = [4, 75]"] ;
224 -> 225 ;
226 [label="gini = 0.067\nsamples = 58\nvalue = [2, 56]"] ;
224 -> 226 ;
227 [label="gini = 0.043\nsamples = 45\nvalue = [1, 44]"] ;
223 -> 227 ;
228 [label="gini = 0.0\nsamples = 32\nvalue = [0, 32]"] ;
222 -> 228 ;
229 [label="gini = 0.0\nsamples = 128\nvalue = [0, 128]"] ;
221 -> 229 ;
230 [label="gini = 0.133\nsamples = 28\nvalue = [2, 26]"] ;
220 -> 230 ;
231 [label="gini = 0.147\nsamples = 50\nvalue = [4, 46]"] ;
219 -> 231 ;
232 [label="gini = 0.264\nsamples = 32\nvalue = [5, 27]"] ;
218 -> 232 ;
233 [label="gini = 0.365\nsamples = 25\nvalue = [6, 19]"] ;
217 -> 233 ;
234 [label="X[20237] <= 7.5\ngini = 0.32\nsamples = 180\nvalue = [36, 144]"] ;
50 -> 234 ;
235 [label="X[15635] <= 0.5\ngini = 0.255\nsamples = 147\nvalue = [22, 125]"] ;
234 -> 235 ;
236 [label="X[20237] <= 6.5\ngini = 0.274\nsamples = 122\nvalue = [20, 102]"] ;
235 -> 236 ;
237 [label="gini = 0.225\nsamples = 62\nvalue = [8, 54]"] ;
236 -> 237 ;
238 [label="X[14562] <= 0.5\ngini = 0.32\nsamples = 60\nvalue = [12, 48]"] ;
236 -> 238 ;
239 [label="gini = 0.383\nsamples = 31\nvalue = [8, 23]"] ;
238 -> 239 ;
240 [label="gini = 0.238\nsamples = 29\nvalue = [4, 25]"] ;
238 -> 240 ;
241 [label="gini = 0.147\nsamples = 25\nvalue = [2, 23]"] ;
235 -> 241 ;
242 [label="gini = 0.489\nsamples = 33\nvalue = [14, 19]"] ;
234 -> 242 ;
243 [label="gini = 0.439\nsamples = 43\nvalue = [14, 29]"] ;
41 -> 243 ;
244 [label="gini = 0.457\nsamples = 34\nvalue = [12, 22]"] ;
40 -> 244 ;
245 [label="gini = 0.431\nsamples = 54\nvalue = [17, 37]"] ;
39 -> 245 ;
246 [label="X[15994] <= 0.5\ngini = 0.368\nsamples = 152\nvalue = [37, 115]"] ;
38 -> 246 ;
247 [label="X[20237] <= 6.5\ngini = 0.331\nsamples = 110\nvalue = [23, 87]"] ;
246 -> 247 ;
248 [label="X[20237] <= 5.5\ngini = 0.316\nsamples = 56\nvalue = [11, 45]"] ;
247 -> 248 ;
249 [label="gini = 0.312\nsamples = 31\nvalue = [6, 25]"] ;
248 -> 249 ;
250 [label="gini = 0.32\nsamples = 25\nvalue = [5, 20]"] ;
248 -> 250 ;
251 [label="gini = 0.346\nsamples = 54\nvalue = [12, 42]"] ;
247 -> 251 ;
252 [label="gini = 0.444\nsamples = 42\nvalue = [14, 28]"] ;
246 -> 252 ;
253 [label="X[8676] <= 0.5\ngini = 0.076\nsamples = 428\nvalue = [17, 411]"] ;
37 -> 253 ;
254 [label="X[8514] <= 0.5\ngini = 0.104\nsamples = 272\nvalue = [15, 257]"] ;
253 -> 254 ;
255 [label="X[20237] <= 5.5\ngini = 0.093\nsamples = 245\nvalue = [12, 233]"] ;
254 -> 255 ;
256 [label="X[8705] <= 0.5\ngini = 0.111\nsamples = 135\nvalue = [8, 127]"] ;
255 -> 256 ;
257 [label="X[8764] <= 0.5\ngini = 0.13\nsamples = 100\nvalue = [7, 93]"] ;
256 -> 257 ;
258 [label="X[20237] <= 4.5\ngini = 0.153\nsamples = 60\nvalue = [5, 55]"] ;
257 -> 258 ;
259 [label="gini = 0.17\nsamples = 32\nvalue = [3, 29]"] ;
258 -> 259 ;
260 [label="gini = 0.133\nsamples = 28\nvalue = [2, 26]"] ;
258 -> 260 ;
261 [label="gini = 0.095\nsamples = 40\nvalue = [2, 38]"] ;
257 -> 261 ;
262 [label="gini = 0.056\nsamples = 35\nvalue = [1, 34]"] ;
256 -> 262 ;
263 [label="X[20237] <= 6.5\ngini = 0.07\nsamples = 110\nvalue = [4, 106]"] ;
255 -> 263 ;
264 [label="X[8764] <= 0.5\ngini = 0.031\nsamples = 63\nvalue = [1, 62]"] ;
263 -> 264 ;
265 [label="gini = 0.0\nsamples = 31\nvalue = [0, 31]"] ;
264 -> 265 ;
266 [label="gini = 0.061\nsamples = 32\nvalue = [1, 31]"] ;
264 -> 266 ;
267 [label="gini = 0.12\nsamples = 47\nvalue = [3, 44]"] ;
263 -> 267 ;
268 [label="gini = 0.198\nsamples = 27\nvalue = [3, 24]"] ;
254 -> 268 ;
269 [label="X[17460] <= 0.5\ngini = 0.025\nsamples = 156\nvalue = [2, 154]"] ;
253 -> 269 ;
270 [label="X[20237] <= 6.5\ngini = 0.045\nsamples = 87\nvalue = [2, 85]"] ;
269 -> 270 ;
271 [label="gini = 0.034\nsamples = 57\nvalue = [1, 56]"] ;
270 -> 271 ;
272 [label="gini = 0.064\nsamples = 30\nvalue = [1, 29]"] ;
270 -> 272 ;
273 [label="gini = 0.0\nsamples = 69\nvalue = [0, 69]"] ;
269 -> 273 ;
274 [label="X[8514] <= 0.5\ngini = 0.389\nsamples = 193\nvalue = [51, 142]"] ;
36 -> 274 ;
275 [label="X[20237] <= 6.5\ngini = 0.356\nsamples = 164\nvalue = [38, 126]"] ;
274 -> 275 ;
276 [label="X[20237] <= 5.5\ngini = 0.306\nsamples = 106\nvalue = [20, 86]"] ;
275 -> 276 ;
277 [label="gini = 0.325\nsamples = 49\nvalue = [10, 39]"] ;
276 -> 277 ;
278 [label="gini = 0.289\nsamples = 57\nvalue = [10, 47]"] ;
276 -> 278 ;
279 [label="gini = 0.428\nsamples = 58\nvalue = [18, 40]"] ;
275 -> 279 ;
280 [label="gini = 0.495\nsamples = 29\nvalue = [13, 16]"] ;
274 -> 280 ;
281 [label="X[8699] <= 0.5\ngini = 0.112\nsamples = 970\nvalue = [58, 912]"] ;
35 -> 281 ;
282 [label="X[20223] <= 0.5\ngini = 0.1\nsamples = 944\nvalue = [50, 894]"] ;
281 -> 282 ;
283 [label="X[20218] <= 0.5\ngini = 0.092\nsamples = 912\nvalue = [44, 868]"] ;
282 -> 283 ;
284 [label="X[20225] <= 0.5\ngini = 0.086\nsamples = 886\nvalue = [40, 846]"] ;
283 -> 284 ;
285 [label="X[2836] <= 0.5\ngini = 0.099\nsamples = 670\nvalue = [35, 635]"] ;
284 -> 285 ;
286 [label="X[20237] <= 10.5\ngini = 0.092\nsamples = 643\nvalue = [31, 612]"] ;
285 -> 286 ;
287 [label="X[20229] <= 0.5\ngini = 0.111\nsamples = 442\nvalue = [26, 416]"] ;
286 -> 287 ;
288 [label="X[20230] <= 0.5\ngini = 0.181\nsamples = 169\nvalue = [17, 152]"] ;
287 -> 288 ;
289 [label="X[20221] <= 0.5\ngini = 0.201\nsamples = 141\nvalue = [16, 125]"] ;
288 -> 289 ;
290 [label="X[20214] <= 0.5\ngini = 0.22\nsamples = 111\nvalue = [14, 97]"] ;
289 -> 290 ;
291 [label="gini = 0.252\nsamples = 54\nvalue = [8, 46]"] ;
290 -> 291 ;
292 [label="X[20237] <= 9.5\ngini = 0.188\nsamples = 57\nvalue = [6, 51]"] ;
290 -> 292 ;
293 [label="gini = 0.264\nsamples = 32\nvalue = [5, 27]"] ;
292 -> 293 ;
294 [label="gini = 0.077\nsamples = 25\nvalue = [1, 24]"] ;
292 -> 294 ;
295 [label="gini = 0.124\nsamples = 30\nvalue = [2, 28]"] ;
289 -> 295 ;
296 [label="gini = 0.069\nsamples = 28\nvalue = [1, 27]"] ;
288 -> 296 ;
297 [label="X[20237] <= 9.5\ngini = 0.064\nsamples = 273\nvalue = [9, 264]"] ;
287 -> 297 ;
298 [label="X[8957] <= 0.5\ngini = 0.09\nsamples = 170\nvalue = [8, 162]"] ;
297 -> 298 ;
299 [label="gini = 0.156\nsamples = 47\nvalue = [4, 43]"] ;
298 -> 299 ;
300 [label="gini = 0.063\nsamples = 123\nvalue = [4, 119]"] ;
298 -> 300 ;
301 [label="X[8957] <= 0.5\ngini = 0.019\nsamples = 103\nvalue = [1, 102]"] ;
297 -> 301 ;
302 [label="gini = 0.0\nsamples = 33\nvalue = [0, 33]"] ;
301 -> 302 ;
303 [label="gini = 0.028\nsamples = 70\nvalue = [1, 69]"] ;
301 -> 303 ;
304 [label="X[103] <= 0.5\ngini = 0.049\nsamples = 201\nvalue = [5, 196]"] ;
286 -> 304 ;
305 [label="X[9554] <= 0.5\ngini = 0.034\nsamples = 171\nvalue = [3, 168]"] ;
304 -> 305 ;
306 [label="X[8890] <= 0.5\ngini = 0.044\nsamples = 132\nvalue = [3, 129]"] ;
305 -> 306 ;
307 [label="X[20237] <= 12.5\ngini = 0.038\nsamples = 104\nvalue = [2, 102]"] ;
306 -> 307 ;
308 [label="X[20237] <= 11.5\ngini = 0.05\nsamples = 78\nvalue = [2, 76]"] ;
307 -> 308 ;
309 [label="gini = 0.038\nsamples = 52\nvalue = [1, 51]"] ;
308 -> 309 ;
310 [label="gini = 0.074\nsamples = 26\nvalue = [1, 25]"] ;
308 -> 310 ;
311 [label="gini = 0.0\nsamples = 26\nvalue = [0, 26]"] ;
307 -> 311 ;
312 [label="gini = 0.069\nsamples = 28\nvalue = [1, 27]"] ;
306 -> 312 ;
313 [label="gini = 0.0\nsamples = 39\nvalue = [0, 39]"] ;
305 -> 313 ;
314 [label="gini = 0.124\nsamples = 30\nvalue = [2, 28]"] ;
304 -> 314 ;
315 [label="gini = 0.252\nsamples = 27\nvalue = [4, 23]"] ;
285 -> 315 ;
316 [label="X[20237] <= 11.5\ngini = 0.045\nsamples = 216\nvalue = [5, 211]"] ;
284 -> 316 ;
317 [label="X[20237] <= 10.5\ngini = 0.067\nsamples = 145\nvalue = [5, 140]"] ;
316 -> 317 ;
318 [label="X[8843] <= 0.5\ngini = 0.033\nsamples = 120\nvalue = [2, 118]"] ;
317 -> 318 ;
319 [label="X[8768] <= 0.5\ngini = 0.043\nsamples = 92\nvalue = [2, 90]"] ;
318 -> 319 ;
320 [label="gini = 0.06\nsamples = 65\nvalue = [2, 63]"] ;
319 -> 320 ;
321 [label="gini = 0.0\nsamples = 27\nvalue = [0, 27]"] ;
319 -> 321 ;
322 [label="gini = 0.0\nsamples = 28\nvalue = [0, 28]"] ;
318 -> 322 ;
323 [label="gini = 0.211\nsamples = 25\nvalue = [3, 22]"] ;
317 -> 323 ;
324 [label="gini = 0.0\nsamples = 71\nvalue = [0, 71]"] ;
316 -> 324 ;
325 [label="gini = 0.26\nsamples = 26\nvalue = [4, 22]"] ;
283 -> 325 ;
326 [label="gini = 0.305\nsamples = 32\nvalue = [6, 26]"] ;
282 -> 326 ;
327 [label="gini = 0.426\nsamples = 26\nvalue = [8, 18]"] ;
281 -> 327 ;
328 [label="X[20237] <= 4.5\ngini = 0.452\nsamples = 90\nvalue = [31, 59]"] ;
34 -> 328 ;
329 [label="gini = 0.397\nsamples = 33\nvalue = [9, 24]"] ;
328 -> 329 ;
330 [label="gini = 0.474\nsamples = 57\nvalue = [22, 35]"] ;
328 -> 330 ;
331 [label="gini = 0.497\nsamples = 28\nvalue = [15, 13]"] ;
33 -> 331 ;
332 [label="X[8524] <= 0.5\ngini = 0.426\nsamples = 166\nvalue = [51, 115]"] ;
32 -> 332 ;
333 [label="X[20237] <= 5.5\ngini = 0.441\nsamples = 140\nvalue = [46, 94]"] ;
332 -> 333 ;
334 [label="X[20237] <= 4.5\ngini = 0.463\nsamples = 85\nvalue = [31, 54]"] ;
333 -> 334 ;
335 [label="gini = 0.459\nsamples = 56\nvalue = [20, 36]"] ;
334 -> 335 ;
336 [label="gini = 0.471\nsamples = 29\nvalue = [11, 18]"] ;
334 -> 336 ;
337 [label="X[20237] <= 7.5\ngini = 0.397\nsamples = 55\nvalue = [15, 40]"] ;
333 -> 337 ;
338 [label="gini = 0.337\nsamples = 28\nvalue = [6, 22]"] ;
337 -> 338 ;
339 [label="gini = 0.444\nsamples = 27\nvalue = [9, 18]"] ;
337 -> 339 ;
340 [label="gini = 0.311\nsamples = 26\nvalue = [5, 21]"] ;
332 -> 340 ;
341 [label="X[8532] <= 0.5\ngini = 0.469\nsamples = 96\nvalue = [36, 60]"] ;
31 -> 341 ;
342 [label="X[20237] <= 5.5\ngini = 0.448\nsamples = 71\nvalue = [24, 47]"] ;
341 -> 342 ;
343 [label="gini = 0.48\nsamples = 35\nvalue = [14, 21]"] ;
342 -> 343 ;
344 [label="gini = 0.401\nsamples = 36\nvalue = [10, 26]"] ;
342 -> 344 ;
345 [label="gini = 0.499\nsamples = 25\nvalue = [12, 13]"] ;
341 -> 345 ;
346 [label="gini = 0.487\nsamples = 31\nvalue = [18, 13]"] ;
30 -> 346 ;
347 [label="X[20237] <= 5.5\ngini = 0.499\nsamples = 59\nvalue = [31, 28]"] ;
29 -> 347 ;
348 [label="gini = 0.495\nsamples = 29\nvalue = [13, 16]"] ;
347 -> 348 ;
349 [label="gini = 0.48\nsamples = 30\nvalue = [18, 12]"] ;
347 -> 349 ;
350 [label="X[161] <= 0.5\ngini = 0.337\nsamples = 1694\nvalue = [364, 1330]"] ;
28 -> 350 ;
351 [label="X[8771] <= 0.5\ngini = 0.324\nsamples = 1660\nvalue = [337, 1323]"] ;
350 -> 351 ;
352 [label="X[322] <= 0.5\ngini = 0.348\nsamples = 1435\nvalue = [322, 1113]"] ;
351 -> 352 ;
353 [label="X[8525] <= 0.5\ngini = 0.341\nsamples = 1402\nvalue = [306, 1096]"] ;
352 -> 353 ;
354 [label="X[8521] <= 0.5\ngini = 0.33\nsamples = 1332\nvalue = [278, 1054]"] ;
353 -> 354 ;
355 [label="X[8518] <= 0.5\ngini = 0.321\nsamples = 1276\nvalue = [256, 1020]"] ;
354 -> 355 ;
356 [label="X[8650] <= 0.5\ngini = 0.308\nsamples = 1187\nvalue = [226, 961]"] ;
355 -> 356 ;
357 [label="X[8520] <= 0.5\ngini = 0.281\nsamples = 929\nvalue = [157, 772]"] ;
356 -> 357 ;
358 [label="X[20237] <= 9.5\ngini = 0.269\nsamples = 888\nvalue = [142, 746]"] ;
357 -> 358 ;
359 [label="X[8529] <= 0.5\ngini = 0.284\nsamples = 783\nvalue = [134, 649]"] ;
358 -> 359 ;
360 [label="X[8514] <= 0.5\ngini = 0.277\nsamples = 753\nvalue = [125, 628]"] ;
359 -> 360 ;
361 [label="X[180] <= 0.5\ngini = 0.265\nsamples = 655\nvalue = [103, 552]"] ;
360 -> 361 ;
362 [label="X[10871] <= 0.5\ngini = 0.257\nsamples = 626\nvalue = [95, 531]"] ;
361 -> 362 ;
363 [label="X[20237] <= 7.5\ngini = 0.251\nsamples = 599\nvalue = [88, 511]"] ;
362 -> 363 ;
364 [label="X[20237] <= 4.5\ngini = 0.239\nsamples = 526\nvalue = [73, 453]"] ;
363 -> 364 ;
365 [label="gini = 0.346\nsamples = 36\nvalue = [8, 28]"] ;
364 -> 365 ;
366 [label="X[8531] <= 0.5\ngini = 0.23\nsamples = 490\nvalue = [65, 425]"] ;
364 -> 366 ;
367 [label="X[20237] <= 6.5\ngini = 0.22\nsamples = 444\nvalue = [56, 388]"] ;
366 -> 367 ;
368 [label="X[8532] <= 0.5\ngini = 0.201\nsamples = 309\nvalue = [35, 274]"] ;
367 -> 368 ;
369 [label="X[8533] <= 0.5\ngini = 0.183\nsamples = 274\nvalue = [28, 246]"] ;
368 -> 369 ;
370 [label="X[8866] <= 0.5\ngini = 0.163\nsamples = 235\nvalue = [21, 214]"] ;
369 -> 370 ;
371 [label="X[20237] <= 5.5\ngini = 0.175\nsamples = 206\nvalue = [20, 186]"] ;
370 -> 371 ;
372 [label="gini = 0.109\nsamples = 52\nvalue = [3, 49]"] ;
371 -> 372 ;
373 [label="X[8524] <= 0.5\ngini = 0.196\nsamples = 154\nvalue = [17, 137]"] ;
371 -> 373 ;
374 [label="gini = 0.199\nsamples = 125\nvalue = [14, 111]"] ;
373 -> 374 ;
375 [label="gini = 0.185\nsamples = 29\nvalue = [3, 26]"] ;
373 -> 375 ;
376 [label="gini = 0.067\nsamples = 29\nvalue = [1, 28]"] ;
370 -> 376 ;
377 [label="gini = 0.295\nsamples = 39\nvalue = [7, 32]"] ;
369 -> 377 ;
378 [label="gini = 0.32\nsamples = 35\nvalue = [7, 28]"] ;
368 -> 378 ;
379 [label="gini = 0.263\nsamples = 135\nvalue = [21, 114]"] ;
367 -> 379 ;
380 [label="gini = 0.315\nsamples = 46\nvalue = [9, 37]"] ;
366 -> 380 ;
381 [label="X[20237] <= 8.5\ngini = 0.327\nsamples = 73\nvalue = [15, 58]"] ;
363 -> 381 ;
382 [label="gini = 0.34\nsamples = 46\nvalue = [10, 36]"] ;
381 -> 382 ;
383 [label="gini = 0.302\nsamples = 27\nvalue = [5, 22]"] ;
381 -> 383 ;
384 [label="gini = 0.384\nsamples = 27\nvalue = [7, 20]"] ;
362 -> 384 ;
385 [label="gini = 0.4\nsamples = 29\nvalue = [8, 21]"] ;
361 -> 385 ;
386 [label="X[11] <= 0.5\ngini = 0.348\nsamples = 98\nvalue = [22, 76]"] ;
360 -> 386 ;
387 [label="X[8712] <= 0.5\ngini = 0.392\nsamples = 71\nvalue = [19, 52]"] ;
386 -> 387 ;
388 [label="gini = 0.435\nsamples = 25\nvalue = [8, 17]"] ;
387 -> 388 ;
389 [label="gini = 0.364\nsamples = 46\nvalue = [11, 35]"] ;
387 -> 389 ;
390 [label="gini = 0.198\nsamples = 27\nvalue = [3, 24]"] ;
386 -> 390 ;
391 [label="gini = 0.42\nsamples = 30\nvalue = [9, 21]"] ;
359 -> 391 ;
392 [label="X[8516] <= 0.5\ngini = 0.141\nsamples = 105\nvalue = [8, 97]"] ;
358 -> 392 ;
393 [label="X[20237] <= 11.5\ngini = 0.195\nsamples = 73\nvalue = [8, 65]"] ;
392 -> 393 ;
394 [label="gini = 0.13\nsamples = 43\nvalue = [3, 40]"] ;
393 -> 394 ;
395 [label="gini = 0.278\nsamples = 30\nvalue = [5, 25]"] ;
393 -> 395 ;
396 [label="gini = 0.0\nsamples = 32\nvalue = [0, 32]"] ;
392 -> 396 ;
397 [label="gini = 0.464\nsamples = 41\nvalue = [15, 26]"] ;
357 -> 397 ;
398 [label="X[20237] <= 6.5\ngini = 0.392\nsamples = 258\nvalue = [69, 189]"] ;
356 -> 398 ;
399 [label="X[15434] <= 0.5\ngini = 0.354\nsamples = 196\nvalue = [45, 151]"] ;
398 -> 399 ;
400 [label="X[20237] <= 5.5\ngini = 0.386\nsamples = 134\nvalue = [35, 99]"] ;
399 -> 400 ;
401 [label="gini = 0.396\nsamples = 70\nvalue = [19, 51]"] ;
400 -> 401 ;
402 [label="gini = 0.375\nsamples = 64\nvalue = [16, 48]"] ;
400 -> 402 ;
403 [label="X[20237] <= 5.5\ngini = 0.271\nsamples = 62\nvalue = [10, 52]"] ;
399 -> 403 ;
404 [label="gini = 0.114\nsamples = 33\nvalue = [2, 31]"] ;
403 -> 404 ;
405 [label="gini = 0.4\nsamples = 29\nvalue = [8, 21]"] ;
403 -> 405 ;
406 [label="X[20237] <= 7.5\ngini = 0.475\nsamples = 62\nvalue = [24, 38]"] ;
398 -> 406 ;
407 [label="gini = 0.48\nsamples = 35\nvalue = [14, 21]"] ;
406 -> 407 ;
408 [label="gini = 0.466\nsamples = 27\nvalue = [10, 17]"] ;
406 -> 408 ;
409 [label="X[20237] <= 6.5\ngini = 0.447\nsamples = 89\nvalue = [30, 59]"] ;
355 -> 409 ;
410 [label="X[8712] <= 0.5\ngini = 0.462\nsamples = 58\nvalue = [21, 37]"] ;
409 -> 410 ;
411 [label="gini = 0.459\nsamples = 28\nvalue = [10, 18]"] ;
410 -> 411 ;
412 [label="gini = 0.464\nsamples = 30\nvalue = [11, 19]"] ;
410 -> 412 ;
413 [label="gini = 0.412\nsamples = 31\nvalue = [9, 22]"] ;
409 -> 413 ;
414 [label="gini = 0.477\nsamples = 56\nvalue = [22, 34]"] ;
354 -> 414 ;
415 [label="X[8712] <= 0.5\ngini = 0.48\nsamples = 70\nvalue = [28, 42]"] ;
353 -> 415 ;
416 [label="gini = 0.5\nsamples = 30\nvalue = [15, 15]"] ;
415 -> 416 ;
417 [label="gini = 0.439\nsamples = 40\nvalue = [13, 27]"] ;
415 -> 417 ;
418 [label="gini = 0.5\nsamples = 33\nvalue = [16, 17]"] ;
352 -> 418 ;
419 [label="X[8532] <= 0.5\ngini = 0.124\nsamples = 225\nvalue = [15, 210]"] ;
351 -> 419 ;
420 [label="X[9349] <= 0.5\ngini = 0.104\nsamples = 199\nvalue = [11, 188]"] ;
419 -> 420 ;
421 [label="X[20237] <= 6.5\ngini = 0.089\nsamples = 171\nvalue = [8, 163]"] ;
420 -> 421 ;
422 [label="X[20237] <= 5.5\ngini = 0.07\nsamples = 138\nvalue = [5, 133]"] ;
421 -> 422 ;
423 [label="gini = 0.094\nsamples = 81\nvalue = [4, 77]"] ;
422 -> 423 ;
424 [label="gini = 0.034\nsamples = 57\nvalue = [1, 56]"] ;
422 -> 424 ;
425 [label="gini = 0.165\nsamples = 33\nvalue = [3, 30]"] ;
421 -> 425 ;
426 [label="gini = 0.191\nsamples = 28\nvalue = [3, 25]"] ;
420 -> 426 ;
427 [label="gini = 0.26\nsamples = 26\nvalue = [4, 22]"] ;
419 -> 427 ;
428 [label="gini = 0.327\nsamples = 34\nvalue = [27, 7]"] ;
350 -> 428 ;
429 [label="X[20237] <= 7.5\ngini = 0.498\nsamples = 144\nvalue = [67, 77]"] ;
27 -> 429 ;
430 [label="X[12403] <= 0.5\ngini = 0.484\nsamples = 117\nvalue = [48, 69]"] ;
429 -> 430 ;
431 [label="X[20237] <= 6.5\ngini = 0.46\nsamples = 81\nvalue = [29, 52]"] ;
430 -> 431 ;
432 [label="gini = 0.278\nsamples = 30\nvalue = [5, 25]"] ;
431 -> 432 ;
433 [label="gini = 0.498\nsamples = 51\nvalue = [24, 27]"] ;
431 -> 433 ;
434 [label="gini = 0.498\nsamples = 36\nvalue = [19, 17]"] ;
430 -> 434 ;
435 [label="gini = 0.417\nsamples = 27\nvalue = [19, 8]"] ;
429 -> 435 ;
436 [label="X[8525] <= 0.5\ngini = 0.355\nsamples = 3543\nvalue = [817, 2726]"] ;
26 -> 436 ;
437 [label="X[8517] <= 0.5\ngini = 0.342\nsamples = 3366\nvalue = [736, 2630]"] ;
436 -> 437 ;
438 [label="X[20237] <= 6.5\ngini = 0.358\nsamples = 3026\nvalue = [706, 2320]"] ;
437 -> 438 ;
439 [label="X[11231] <= 0.5\ngini = 0.321\nsamples = 1845\nvalue = [370, 1475]"] ;
438 -> 439 ;
440 [label="X[8529] <= 0.5\ngini = 0.31\nsamples = 1786\nvalue = [342, 1444]"] ;
439 -> 440 ;
441 [label="X[14781] <= 0.5\ngini = 0.302\nsamples = 1756\nvalue = [325, 1431]"] ;
440 -> 441 ;
442 [label="X[12602] <= 0.5\ngini = 0.29\nsamples = 1668\nvalue = [294, 1374]"] ;
441 -> 442 ;
443 [label="X[8539] <= 0.5\ngini = 0.284\nsamples = 1641\nvalue = [281, 1360]"] ;
442 -> 443 ;
444 [label="X[183] <= 0.5\ngini = 0.292\nsamples = 1578\nvalue = [280, 1298]"] ;
443 -> 444 ;
445 [label="X[12651] <= 0.5\ngini = 0.3\nsamples = 1511\nvalue = [278, 1233]"] ;
444 -> 445 ;
446 [label="X[10862] <= 0.5\ngini = 0.295\nsamples = 1486\nvalue = [267, 1219]"] ;
445 -> 446 ;
447 [label="X[157] <= 0.5\ngini = 0.305\nsamples = 1385\nvalue = [260, 1125]"] ;
446 -> 447 ;
448 [label="X[17936] <= 0.5\ngini = 0.314\nsamples = 1297\nvalue = [253, 1044]"] ;
447 -> 448 ;
449 [label="X[8515] <= 0.5\ngini = 0.309\nsamples = 1272\nvalue = [243, 1029]"] ;
448 -> 449 ;
450 [label="X[8646] <= 0.5\ngini = 0.319\nsamples = 1189\nvalue = [237, 952]"] ;
449 -> 450 ;
451 [label="X[20237] <= 4.5\ngini = 0.359\nsamples = 495\nvalue = [116, 379]"] ;
450 -> 451 ;
452 [label="X[8708] <= 0.5\ngini = 0.451\nsamples = 67\nvalue = [23, 44]"] ;
451 -> 452 ;
453 [label="gini = 0.466\nsamples = 27\nvalue = [10, 17]"] ;
452 -> 453 ;
454 [label="gini = 0.439\nsamples = 40\nvalue = [13, 27]"] ;
452 -> 454 ;
455 [label="X[8514] <= 0.5\ngini = 0.34\nsamples = 428\nvalue = [93, 335]"] ;
451 -> 455 ;
456 [label="X[8532] <= 0.5\ngini = 0.317\nsamples = 359\nvalue = [71, 288]"] ;
455 -> 456 ;
457 [label="X[18018] <= 0.5\ngini = 0.302\nsamples = 324\nvalue = [60, 264]"] ;
456 -> 457 ;
458 [label="X[8533] <= 0.5\ngini = 0.319\nsamples = 291\nvalue = [58, 233]"] ;
457 -> 458 ;
459 [label="X[8708] <= 0.5\ngini = 0.343\nsamples = 246\nvalue = [54, 192]"] ;
458 -> 459 ;
460 [label="X[8952] <= 0.5\ngini = 0.427\nsamples = 68\nvalue = [21, 47]"] ;
459 -> 460 ;
461 [label="gini = 0.48\nsamples = 40\nvalue = [16, 24]"] ;
460 -> 461 ;
462 [label="gini = 0.293\nsamples = 28\nvalue = [5, 23]"] ;
460 -> 462 ;
463 [label="X[17376] <= 0.5\ngini = 0.302\nsamples = 178\nvalue = [33, 145]"] ;
459 -> 463 ;
464 [label="X[8531] <= 0.5\ngini = 0.278\nsamples = 144\nvalue = [24, 120]"] ;
463 -> 464 ;
465 [label="X[19340] <= 0.5\ngini = 0.25\nsamples = 116\nvalue = [17, 99]"] ;
464 -> 465 ;
466 [label="X[20237] <= 5.5\ngini = 0.278\nsamples = 90\nvalue = [15, 75]"] ;
465 -> 466 ;
467 [label="gini = 0.307\nsamples = 37\nvalue = [7, 30]"] ;
466 -> 467 ;
468 [label="gini = 0.256\nsamples = 53\nvalue = [8, 45]"] ;
466 -> 468 ;
469 [label="gini = 0.142\nsamples = 26\nvalue = [2, 24]"] ;
465 -> 469 ;
470 [label="gini = 0.375\nsamples = 28\nvalue = [7, 21]"] ;
464 -> 470 ;
471 [label="gini = 0.389\nsamples = 34\nvalue = [9, 25]"] ;
463 -> 471 ;
472 [label="gini = 0.162\nsamples = 45\nvalue = [4, 41]"] ;
458 -> 472 ;
473 [label="gini = 0.114\nsamples = 33\nvalue = [2, 31]"] ;
457 -> 473 ;
474 [label="gini = 0.431\nsamples = 35\nvalue = [11, 24]"] ;
456 -> 474 ;
475 [label="X[20237] <= 5.5\ngini = 0.434\nsamples = 69\nvalue = [22, 47]"] ;
455 -> 475 ;
476 [label="gini = 0.36\nsamples = 34\nvalue = [8, 26]"] ;
475 -> 476 ;
477 [label="gini = 0.48\nsamples = 35\nvalue = [14, 21]"] ;
475 -> 477 ;
478 [label="X[13325] <= 0.5\ngini = 0.288\nsamples = 694\nvalue = [121, 573]"] ;
450 -> 478 ;
479 [label="X[14560] <= 0.5\ngini = 0.271\nsamples = 631\nvalue = [102, 529]"] ;
478 -> 479 ;
480 [label="X[20237] <= 5.5\ngini = 0.252\nsamples = 567\nvalue = [84, 483]"] ;
479 -> 480 ;
481 [label="X[8514] <= 0.5\ngini = 0.3\nsamples = 299\nvalue = [55, 244]"] ;
480 -> 481 ;
482 [label="X[8518] <= 0.5\ngini = 0.33\nsamples = 249\nvalue = [52, 197]"] ;
481 -> 482 ;
483 [label="X[20237] <= 4.5\ngini = 0.348\nsamples = 214\nvalue = [48, 166]"] ;
482 -> 483 ;
484 [label="gini = 0.372\nsamples = 73\nvalue = [18, 55]"] ;
483 -> 484 ;
485 [label="gini = 0.335\nsamples = 141\nvalue = [30, 111]"] ;
483 -> 485 ;
486 [label="gini = 0.202\nsamples = 35\nvalue = [4, 31]"] ;
482 -> 486 ;
487 [label="gini = 0.113\nsamples = 50\nvalue = [3, 47]"] ;
481 -> 487 ;
488 [label="X[8531] <= 0.5\ngini = 0.193\nsamples = 268\nvalue = [29, 239]"] ;
480 -> 488 ;
489 [label="X[15425] <= 0.5\ngini = 0.17\nsamples = 234\nvalue = [22, 212]"] ;
488 -> 489 ;
490 [label="X[12852] <= 0.5\ngini = 0.192\nsamples = 195\nvalue = [21, 174]"] ;
489 -> 490 ;
491 [label="X[18935] <= 0.5\ngini = 0.211\nsamples = 167\nvalue = [20, 147]"] ;
490 -> 491 ;
492 [label="X[9106] <= 0.5\ngini = 0.231\nsamples = 135\nvalue = [18, 117]"] ;
491 -> 492 ;
493 [label="gini = 0.25\nsamples = 109\nvalue = [16, 93]"] ;
492 -> 493 ;
494 [label="gini = 0.142\nsamples = 26\nvalue = [2, 24]"] ;
492 -> 494 ;
495 [label="gini = 0.117\nsamples = 32\nvalue = [2, 30]"] ;
491 -> 495 ;
496 [label="gini = 0.069\nsamples = 28\nvalue = [1, 27]"] ;
490 -> 496 ;
497 [label="gini = 0.05\nsamples = 39\nvalue = [1, 38]"] ;
489 -> 497 ;
498 [label="gini = 0.327\nsamples = 34\nvalue = [7, 27]"] ;
488 -> 498 ;
499 [label="X[20237] <= 5.5\ngini = 0.404\nsamples = 64\nvalue = [18, 46]"] ;
479 -> 499 ;
500 [label="gini = 0.26\nsamples = 26\nvalue = [4, 22]"] ;
499 -> 500 ;
501 [label="gini = 0.465\nsamples = 38\nvalue = [14, 24]"] ;
499 -> 501 ;
502 [label="gini = 0.421\nsamples = 63\nvalue = [19, 44]"] ;
478 -> 502 ;
503 [label="X[8708] <= 0.5\ngini = 0.134\nsamples = 83\nvalue = [6, 77]"] ;
449 -> 503 ;
504 [label="gini = 0.187\nsamples = 48\nvalue = [5, 43]"] ;
503 -> 504 ;
505 [label="gini = 0.056\nsamples = 35\nvalue = [1, 34]"] ;
503 -> 505 ;
506 [label="gini = 0.48\nsamples = 25\nvalue = [10, 15]"] ;
448 -> 506 ;
507 [label="X[8708] <= 0.5\ngini = 0.146\nsamples = 88\nvalue = [7, 81]"] ;
447 -> 507 ;
508 [label="gini = 0.209\nsamples = 59\nvalue = [7, 52]"] ;
507 -> 508 ;
509 [label="gini = 0.0\nsamples = 29\nvalue = [0, 29]"] ;
507 -> 509 ;
510 [label="gini = 0.129\nsamples = 101\nvalue = [7, 94]"] ;
446 -> 510 ;
511 [label="gini = 0.493\nsamples = 25\nvalue = [11, 14]"] ;
445 -> 511 ;
512 [label="X[8646] <= 0.5\ngini = 0.058\nsamples = 67\nvalue = [2, 65]"] ;
444 -> 512 ;
513 [label="gini = 0.067\nsamples = 29\nvalue = [1, 28]"] ;
512 -> 513 ;
514 [label="gini = 0.051\nsamples = 38\nvalue = [1, 37]"] ;
512 -> 514 ;
515 [label="X[20237] <= 5.5\ngini = 0.031\nsamples = 63\nvalue = [1, 62]"] ;
443 -> 515 ;
516 [label="gini = 0.069\nsamples = 28\nvalue = [1, 27]"] ;
515 -> 516 ;
517 [label="gini = 0.0\nsamples = 35\nvalue = [0, 35]"] ;
515 -> 517 ;
518 [label="gini = 0.499\nsamples = 27\nvalue = [13, 14]"] ;
442 -> 518 ;
519 [label="gini = 0.456\nsamples = 88\nvalue = [31, 57]"] ;
441 -> 519 ;
520 [label="gini = 0.491\nsamples = 30\nvalue = [17, 13]"] ;
440 -> 520 ;
521 [label="gini = 0.499\nsamples = 59\nvalue = [28, 31]"] ;
439 -> 521 ;
522 [label="X[8708] <= 0.5\ngini = 0.407\nsamples = 1181\nvalue = [336, 845]"] ;
438 -> 522 ;
523 [label="X[8520] <= 0.5\ngini = 0.353\nsamples = 804\nvalue = [184, 620]"] ;
522 -> 523 ;
524 [label="X[8516] <= 0.5\ngini = 0.339\nsamples = 777\nvalue = [168, 609]"] ;
523 -> 524 ;
525 [label="X[180] <= 0.5\ngini = 0.316\nsamples = 716\nvalue = [141, 575]"] ;
524 -> 525 ;
526 [label="X[157] <= 0.5\ngini = 0.3\nsamples = 690\nvalue = [127, 563]"] ;
525 -> 526 ;
527 [label="X[8533] <= 0.5\ngini = 0.319\nsamples = 617\nvalue = [123, 494]"] ;
526 -> 527 ;
528 [label="X[170] <= 0.5\ngini = 0.34\nsamples = 530\nvalue = [115, 415]"] ;
527 -> 528 ;
529 [label="X[20237] <= 10.5\ngini = 0.351\nsamples = 494\nvalue = [112, 382]"] ;
528 -> 529 ;
530 [label="X[20237] <= 8.5\ngini = 0.364\nsamples = 452\nvalue = [108, 344]"] ;
529 -> 530 ;
531 [label="X[8952] <= 0.5\ngini = 0.34\nsamples = 382\nvalue = [83, 299]"] ;
530 -> 531 ;
532 [label="X[288] <= 0.5\ngini = 0.35\nsamples = 345\nvalue = [78, 267]"] ;
531 -> 532 ;
533 [label="X[8981] <= 0.5\ngini = 0.358\nsamples = 313\nvalue = [73, 240]"] ;
532 -> 533 ;
534 [label="X[8514] <= 0.5\ngini = 0.368\nsamples = 284\nvalue = [69, 215]"] ;
533 -> 534 ;
535 [label="X[8532] <= 0.5\ngini = 0.375\nsamples = 244\nvalue = [61, 183]"] ;
534 -> 535 ;
536 [label="X[20237] <= 7.5\ngini = 0.378\nsamples = 213\nvalue = [54, 159]"] ;
535 -> 536 ;
537 [label="gini = 0.369\nsamples = 156\nvalue = [38, 118]"] ;
536 -> 537 ;
538 [label="gini = 0.404\nsamples = 57\nvalue = [16, 41]"] ;
536 -> 538 ;
539 [label="gini = 0.35\nsamples = 31\nvalue = [7, 24]"] ;
535 -> 539 ;
540 [label="gini = 0.32\nsamples = 40\nvalue = [8, 32]"] ;
534 -> 540 ;
541 [label="gini = 0.238\nsamples = 29\nvalue = [4, 25]"] ;
533 -> 541 ;
542 [label="gini = 0.264\nsamples = 32\nvalue = [5, 27]"] ;
532 -> 542 ;
543 [label="gini = 0.234\nsamples = 37\nvalue = [5, 32]"] ;
531 -> 543 ;
544 [label="X[20237] <= 9.5\ngini = 0.459\nsamples = 70\nvalue = [25, 45]"] ;
530 -> 544 ;
545 [label="gini = 0.474\nsamples = 44\nvalue = [17, 27]"] ;
544 -> 545 ;
546 [label="gini = 0.426\nsamples = 26\nvalue = [8, 18]"] ;
544 -> 546 ;
547 [label="gini = 0.172\nsamples = 42\nvalue = [4, 38]"] ;
529 -> 547 ;
548 [label="gini = 0.153\nsamples = 36\nvalue = [3, 33]"] ;
528 -> 548 ;
549 [label="X[334] <= 0.5\ngini = 0.167\nsamples = 87\nvalue = [8, 79]"] ;
527 -> 549 ;
550 [label="gini = 0.236\nsamples = 44\nvalue = [6, 38]"] ;
549 -> 550 ;
551 [label="gini = 0.089\nsamples = 43\nvalue = [2, 41]"] ;
549 -> 551 ;
552 [label="X[20237] <= 7.5\ngini = 0.104\nsamples = 73\nvalue = [4, 69]"] ;
526 -> 552 ;
553 [label="gini = 0.142\nsamples = 39\nvalue = [3, 36]"] ;
552 -> 553 ;
554 [label="gini = 0.057\nsamples = 34\nvalue = [1, 33]"] ;
552 -> 554 ;
555 [label="gini = 0.497\nsamples = 26\nvalue = [14, 12]"] ;
525 -> 555 ;
556 [label="X[20237] <= 7.5\ngini = 0.493\nsamples = 61\nvalue = [27, 34]"] ;
524 -> 556 ;
557 [label="gini = 0.497\nsamples = 28\nvalue = [15, 13]"] ;
556 -> 557 ;
558 [label="gini = 0.463\nsamples = 33\nvalue = [12, 21]"] ;
556 -> 558 ;
559 [label="gini = 0.483\nsamples = 27\nvalue = [16, 11]"] ;
523 -> 559 ;
560 [label="X[20237] <= 7.5\ngini = 0.481\nsamples = 377\nvalue = [152, 225]"] ;
522 -> 560 ;
561 [label="X[35] <= 0.5\ngini = 0.437\nsamples = 254\nvalue = [82, 172]"] ;
560 -> 561 ;
562 [label="X[8533] <= 0.5\ngini = 0.456\nsamples = 228\nvalue = [80, 148]"] ;
561 -> 562 ;
563 [label="X[157] <= 0.5\ngini = 0.474\nsamples = 199\nvalue = [77, 122]"] ;
562 -> 563 ;
564 [label="X[8516] <= 0.5\ngini = 0.488\nsamples = 168\nvalue = [71, 97]"] ;
563 -> 564 ;
565 [label="X[8524] <= 0.5\ngini = 0.491\nsamples = 143\nvalue = [62, 81]"] ;
564 -> 565 ;
566 [label="gini = 0.495\nsamples = 111\nvalue = [50, 61]"] ;
565 -> 566 ;
567 [label="gini = 0.469\nsamples = 32\nvalue = [12, 20]"] ;
565 -> 567 ;
568 [label="gini = 0.461\nsamples = 25\nvalue = [9, 16]"] ;
564 -> 568 ;
569 [label="gini = 0.312\nsamples = 31\nvalue = [6, 25]"] ;
563 -> 569 ;
570 [label="gini = 0.185\nsamples = 29\nvalue = [3, 26]"] ;
562 -> 570 ;
571 [label="gini = 0.142\nsamples = 26\nvalue = [2, 24]"] ;
561 -> 571 ;
572 [label="X[20237] <= 8.5\ngini = 0.49\nsamples = 123\nvalue = [70, 53]"] ;
560 -> 572 ;
573 [label="gini = 0.5\nsamples = 60\nvalue = [30, 30]"] ;
572 -> 573 ;
574 [label="X[20237] <= 9.5\ngini = 0.464\nsamples = 63\nvalue = [40, 23]"] ;
572 -> 574 ;
575 [label="gini = 0.375\nsamples = 28\nvalue = [21, 7]"] ;
574 -> 575 ;
576 [label="gini = 0.496\nsamples = 35\nvalue = [19, 16]"] ;
574 -> 576 ;
577 [label="X[8646] <= 0.5\ngini = 0.161\nsamples = 340\nvalue = [30, 310]"] ;
437 -> 577 ;
578 [label="X[20237] <= 7.5\ngini = 0.208\nsamples = 153\nvalue = [18, 135]"] ;
577 -> 578 ;
579 [label="X[8708] <= 0.5\ngini = 0.223\nsamples = 125\nvalue = [16, 109]"] ;
578 -> 579 ;
580 [label="gini = 0.331\nsamples = 43\nvalue = [9, 34]"] ;
579 -> 580 ;
581 [label="X[54] <= 0.5\ngini = 0.156\nsamples = 82\nvalue = [7, 75]"] ;
579 -> 581 ;
582 [label="gini = 0.156\nsamples = 47\nvalue = [4, 43]"] ;
581 -> 582 ;
583 [label="gini = 0.157\nsamples = 35\nvalue = [3, 32]"] ;
581 -> 583 ;
584 [label="gini = 0.133\nsamples = 28\nvalue = [2, 26]"] ;
578 -> 584 ;
585 [label="X[57] <= 0.5\ngini = 0.12\nsamples = 187\nvalue = [12, 175]"] ;
577 -> 585 ;
586 [label="X[20237] <= 6.5\ngini = 0.081\nsamples = 141\nvalue = [6, 135]"] ;
585 -> 586 ;
587 [label="X[20237] <= 5.5\ngini = 0.05\nsamples = 78\nvalue = [2, 76]"] ;
586 -> 587 ;
588 [label="gini = 0.128\nsamples = 29\nvalue = [2, 27]"] ;
587 -> 588 ;
589 [label="gini = 0.0\nsamples = 49\nvalue = [0, 49]"] ;
587 -> 589 ;
590 [label="gini = 0.119\nsamples = 63\nvalue = [4, 59]"] ;
586 -> 590 ;
591 [label="gini = 0.227\nsamples = 46\nvalue = [6, 40]"] ;
585 -> 591 ;
592 [label="X[8708] <= 0.5\ngini = 0.496\nsamples = 177\nvalue = [81, 96]"] ;
436 -> 592 ;
593 [label="X[8646] <= 0.5\ngini = 0.5\nsamples = 121\nvalue = [61, 60]"] ;
592 -> 593 ;
594 [label="gini = 0.444\nsamples = 30\nvalue = [20, 10]"] ;
593 -> 594 ;
595 [label="X[198] <= 0.5\ngini = 0.495\nsamples = 91\nvalue = [41, 50]"] ;
593 -> 595 ;
596 [label="gini = 0.5\nsamples = 61\nvalue = [30, 31]"] ;
595 -> 596 ;
597 [label="gini = 0.464\nsamples = 30\nvalue = [11, 19]"] ;
595 -> 597 ;
598 [label="X[198] <= 0.5\ngini = 0.459\nsamples = 56\nvalue = [20, 36]"] ;
592 -> 598 ;
599 [label="gini = 0.466\nsamples = 27\nvalue = [10, 17]"] ;
598 -> 599 ;
600 [label="gini = 0.452\nsamples = 29\nvalue = [10, 19]"] ;
598 -> 600 ;
601 [label="X[20237] <= 5.5\ngini = 0.5\nsamples = 113\nvalue = [57, 56]"] ;
25 -> 601 ;
602 [label="gini = 0.45\nsamples = 38\nvalue = [13, 25]"] ;
601 -> 602 ;
603 [label="gini = 0.485\nsamples = 75\nvalue = [44, 31]"] ;
601 -> 603 ;
604 [label="X[20237] <= 6.5\ngini = 0.448\nsamples = 59\nvalue = [39, 20]"] ;
24 -> 604 ;
605 [label="gini = 0.499\nsamples = 27\nvalue = [14, 13]"] ;
604 -> 605 ;
606 [label="gini = 0.342\nsamples = 32\nvalue = [25, 7]"] ;
604 -> 606 ;
607 [label="X[8514] <= 0.5\ngini = 0.169\nsamples = 2005\nvalue = [187, 1818]"] ;
23 -> 607 ;
608 [label="X[42] <= 0.5\ngini = 0.148\nsamples = 1845\nvalue = [149, 1696]"] ;
607 -> 608 ;
609 [label="X[8529] <= 0.5\ngini = 0.139\nsamples = 1813\nvalue = [136, 1677]"] ;
608 -> 609 ;
610 [label="X[13173] <= 0.5\ngini = 0.132\nsamples = 1775\nvalue = [126, 1649]"] ;
609 -> 610 ;
611 [label="X[301] <= 0.5\ngini = 0.127\nsamples = 1742\nvalue = [119, 1623]"] ;
610 -> 611 ;
612 [label="X[20237] <= 6.5\ngini = 0.123\nsamples = 1715\nvalue = [113, 1602]"] ;
611 -> 612 ;
613 [label="X[20237] <= 5.5\ngini = 0.091\nsamples = 896\nvalue = [43, 853]"] ;
612 -> 613 ;
614 [label="X[8533] <= 0.5\ngini = 0.161\nsamples = 317\nvalue = [28, 289]"] ;
613 -> 614 ;
615 [label="X[8517] <= 0.5\ngini = 0.172\nsamples = 285\nvalue = [27, 258]"] ;
614 -> 615 ;
616 [label="X[8523] <= 0.5\ngini = 0.162\nsamples = 248\nvalue = [22, 226]"] ;
615 -> 616 ;
617 [label="X[8524] <= 0.5\ngini = 0.17\nsamples = 203\nvalue = [19, 184]"] ;
616 -> 617 ;
618 [label="X[16626] <= 0.5\ngini = 0.179\nsamples = 171\nvalue = [17, 154]"] ;
617 -> 618 ;
619 [label="gini = 0.172\nsamples = 137\nvalue = [13, 124]"] ;
618 -> 619 ;
620 [label="gini = 0.208\nsamples = 34\nvalue = [4, 30]"] ;
618 -> 620 ;
621 [label="gini = 0.117\nsamples = 32\nvalue = [2, 30]"] ;
617 -> 621 ;
622 [label="gini = 0.124\nsamples = 45\nvalue = [3, 42]"] ;
616 -> 622 ;
623 [label="gini = 0.234\nsamples = 37\nvalue = [5, 32]"] ;
615 -> 623 ;
624 [label="gini = 0.061\nsamples = 32\nvalue = [1, 31]"] ;
614 -> 624 ;
625 [label="X[15144] <= 0.5\ngini = 0.05\nsamples = 579\nvalue = [15, 564]"] ;
613 -> 625 ;
626 [label="X[17686] <= 0.5\ngini = 0.044\nsamples = 536\nvalue = [12, 524]"] ;
625 -> 626 ;
627 [label="X[15633] <= 0.5\ngini = 0.036\nsamples = 486\nvalue = [9, 477]"] ;
626 -> 627 ;
628 [label="X[8523] <= 0.5\ngini = 0.031\nsamples = 444\nvalue = [7, 437]"] ;
627 -> 628 ;
629 [label="X[8517] <= 0.5\ngini = 0.036\nsamples = 385\nvalue = [7, 378]"] ;
628 -> 629 ;
630 [label="X[11011] <= 0.5\ngini = 0.042\nsamples = 326\nvalue = [7, 319]"] ;
629 -> 630 ;
631 [label="X[8515] <= 0.5\ngini = 0.048\nsamples = 287\nvalue = [7, 280]"] ;
630 -> 631 ;
632 [label="X[8516] <= 0.5\ngini = 0.052\nsamples = 262\nvalue = [7, 255]"] ;
631 -> 632 ;
633 [label="X[18738] <= 0.5\ngini = 0.057\nsamples = 237\nvalue = [7, 230]"] ;
632 -> 633 ;
634 [label="X[8524] <= 0.5\ngini = 0.066\nsamples = 175\nvalue = [6, 169]"] ;
633 -> 634 ;
635 [label="X[8533] <= 0.5\ngini = 0.086\nsamples = 134\nvalue = [6, 128]"] ;
634 -> 635 ;
636 [label="X[18215] <= 0.5\ngini = 0.099\nsamples = 96\nvalue = [5, 91]"] ;
635 -> 636 ;
637 [label="gini = 0.126\nsamples = 59\nvalue = [4, 55]"] ;
636 -> 637 ;
638 [label="gini = 0.053\nsamples = 37\nvalue = [1, 36]"] ;
636 -> 638 ;
639 [label="gini = 0.051\nsamples = 38\nvalue = [1, 37]"] ;
635 -> 639 ;
640 [label="gini = 0.0\nsamples = 41\nvalue = [0, 41]"] ;
634 -> 640 ;
641 [label="gini = 0.032\nsamples = 62\nvalue = [1, 61]"] ;
633 -> 641 ;
642 [label="gini = 0.0\nsamples = 25\nvalue = [0, 25]"] ;
632 -> 642 ;
643 [label="gini = 0.0\nsamples = 25\nvalue = [0, 25]"] ;
631 -> 643 ;
644 [label="gini = 0.0\nsamples = 39\nvalue = [0, 39]"] ;
630 -> 644 ;
645 [label="gini = 0.0\nsamples = 59\nvalue = [0, 59]"] ;
629 -> 645 ;
646 [label="gini = 0.0\nsamples = 59\nvalue = [0, 59]"] ;
628 -> 646 ;
647 [label="gini = 0.091\nsamples = 42\nvalue = [2, 40]"] ;
627 -> 647 ;
648 [label="gini = 0.113\nsamples = 50\nvalue = [3, 47]"] ;
626 -> 648 ;
649 [label="gini = 0.13\nsamples = 43\nvalue = [3, 40]"] ;
625 -> 649 ;
650 [label="X[8524] <= 0.5\ngini = 0.156\nsamples = 819\nvalue = [70, 749]"] ;
612 -> 650 ;
651 [label="X[8516] <= 0.5\ngini = 0.129\nsamples = 721\nvalue = [50, 671]"] ;
650 -> 651 ;
652 [label="X[8532] <= 0.5\ngini = 0.11\nsamples = 651\nvalue = [38, 613]"] ;
651 -> 652 ;
653 [label="X[103] <= 0.5\ngini = 0.101\nsamples = 621\nvalue = [33, 588]"] ;
652 -> 653 ;
654 [label="X[8531] <= 0.5\ngini = 0.093\nsamples = 596\nvalue = [29, 567]"] ;
653 -> 654 ;
655 [label="X[157] <= 0.5\ngini = 0.084\nsamples = 569\nvalue = [25, 544]"] ;
654 -> 655 ;
656 [label="X[334] <= 0.5\ngini = 0.096\nsamples = 475\nvalue = [24, 451]"] ;
655 -> 656 ;
657 [label="X[20237] <= 7.5\ngini = 0.106\nsamples = 428\nvalue = [24, 404]"] ;
656 -> 657 ;
658 [label="X[35] <= 0.5\ngini = 0.133\nsamples = 251\nvalue = [18, 233]"] ;
657 -> 658 ;
659 [label="X[54] <= 0.5\ngini = 0.152\nsamples = 217\nvalue = [18, 199]"] ;
658 -> 659 ;
660 [label="X[8517] <= 0.5\ngini = 0.169\nsamples = 182\nvalue = [17, 165]"] ;
659 -> 660 ;
661 [label="X[8533] <= 0.5\ngini = 0.161\nsamples = 147\nvalue = [13, 134]"] ;
660 -> 661 ;
662 [label="gini = 0.165\nsamples = 121\nvalue = [11, 110]"] ;
661 -> 662 ;
663 [label="gini = 0.142\nsamples = 26\nvalue = [2, 24]"] ;
661 -> 663 ;
664 [label="gini = 0.202\nsamples = 35\nvalue = [4, 31]"] ;
660 -> 664 ;
665 [label="gini = 0.056\nsamples = 35\nvalue = [1, 34]"] ;
659 -> 665 ;
666 [label="gini = 0.0\nsamples = 34\nvalue = [0, 34]"] ;
658 -> 666 ;
667 [label="X[8525] <= 0.5\ngini = 0.065\nsamples = 177\nvalue = [6, 171]"] ;
657 -> 667 ;
668 [label="X[20237] <= 8.5\ngini = 0.052\nsamples = 149\nvalue = [4, 145]"] ;
667 -> 668 ;
669 [label="gini = 0.063\nsamples = 92\nvalue = [3, 89]"] ;
668 -> 669 ;
670 [label="gini = 0.034\nsamples = 57\nvalue = [1, 56]"] ;
668 -> 670 ;
671 [label="gini = 0.133\nsamples = 28\nvalue = [2, 26]"] ;
667 -> 671 ;
672 [label="gini = 0.0\nsamples = 47\nvalue = [0, 47]"] ;
656 -> 672 ;
673 [label="X[20237] <= 7.5\ngini = 0.021\nsamples = 94\nvalue = [1, 93]"] ;
655 -> 673 ;
674 [label="gini = 0.0\nsamples = 44\nvalue = [0, 44]"] ;
673 -> 674 ;
675 [label="gini = 0.039\nsamples = 50\nvalue = [1, 49]"] ;
673 -> 675 ;
676 [label="gini = 0.252\nsamples = 27\nvalue = [4, 23]"] ;
654 -> 676 ;
677 [label="gini = 0.269\nsamples = 25\nvalue = [4, 21]"] ;
653 -> 677 ;
678 [label="gini = 0.278\nsamples = 30\nvalue = [5, 25]"] ;
652 -> 678 ;
679 [label="X[40] <= 0.5\ngini = 0.284\nsamples = 70\nvalue = [12, 58]"] ;
651 -> 679 ;
680 [label="gini = 0.245\nsamples = 42\nvalue = [6, 36]"] ;
679 -> 680 ;
681 [label="gini = 0.337\nsamples = 28\nvalue = [6, 22]"] ;
679 -> 681 ;
682 [label="X[20237] <= 7.5\ngini = 0.325\nsamples = 98\nvalue = [20, 78]"] ;
650 -> 682 ;
683 [label="gini = 0.278\nsamples = 60\nvalue = [10, 50]"] ;
682 -> 683 ;
684 [label="gini = 0.388\nsamples = 38\nvalue = [10, 28]"] ;
682 -> 684 ;
685 [label="gini = 0.346\nsamples = 27\nvalue = [6, 21]"] ;
611 -> 685 ;
686 [label="gini = 0.334\nsamples = 33\nvalue = [7, 26]"] ;
610 -> 686 ;
687 [label="gini = 0.388\nsamples = 38\nvalue = [10, 28]"] ;
609 -> 687 ;
688 [label="gini = 0.482\nsamples = 32\nvalue = [13, 19]"] ;
608 -> 688 ;
689 [label="X[20237] <= 5.5\ngini = 0.362\nsamples = 160\nvalue = [38, 122]"] ;
607 -> 689 ;
690 [label="gini = 0.043\nsamples = 45\nvalue = [1, 44]"] ;
689 -> 690 ;
691 [label="X[20237] <= 7.5\ngini = 0.436\nsamples = 115\nvalue = [37, 78]"] ;
689 -> 691 ;
692 [label="X[20237] <= 6.5\ngini = 0.447\nsamples = 80\nvalue = [27, 53]"] ;
691 -> 692 ;
693 [label="gini = 0.418\nsamples = 47\nvalue = [14, 33]"] ;
692 -> 693 ;
694 [label="gini = 0.478\nsamples = 33\nvalue = [13, 20]"] ;
692 -> 694 ;
695 [label="gini = 0.408\nsamples = 35\nvalue = [10, 25]"] ;
691 -> 695 ;
696 [label="gini = 0.414\nsamples = 58\nvalue = [41, 17]"] ;
22 -> 696 ;
697 [label="X[20224] <= 0.5\ngini = 0.481\nsamples = 326\nvalue = [131, 195]"] ;
21 -> 697 ;
698 [label="X[6816] <= 0.5\ngini = 0.366\nsamples = 191\nvalue = [46, 145]"] ;
697 -> 698 ;
699 [label="X[20237] <= 6.5\ngini = 0.334\nsamples = 118\nvalue = [25, 93]"] ;
698 -> 699 ;
700 [label="gini = 0.382\nsamples = 35\nvalue = [9, 26]"] ;
699 -> 700 ;
701 [label="X[20237] <= 7.5\ngini = 0.311\nsamples = 83\nvalue = [16, 67]"] ;
699 -> 701 ;
702 [label="gini = 0.147\nsamples = 25\nvalue = [2, 23]"] ;
701 -> 702 ;
703 [label="gini = 0.366\nsamples = 58\nvalue = [14, 44]"] ;
701 -> 703 ;
704 [label="X[20237] <= 6.5\ngini = 0.41\nsamples = 73\nvalue = [21, 52]"] ;
698 -> 704 ;
705 [label="gini = 0.412\nsamples = 31\nvalue = [9, 22]"] ;
704 -> 705 ;
706 [label="gini = 0.408\nsamples = 42\nvalue = [12, 30]"] ;
704 -> 706 ;
707 [label="X[8646] <= 0.5\ngini = 0.466\nsamples = 135\nvalue = [85, 50]"] ;
697 -> 707 ;
708 [label="X[20237] <= 6.5\ngini = 0.423\nsamples = 89\nvalue = [62, 27]"] ;
707 -> 708 ;
709 [label="gini = 0.495\nsamples = 29\nvalue = [16, 13]"] ;
708 -> 709 ;
710 [label="X[8863] <= 0.5\ngini = 0.358\nsamples = 60\nvalue = [46, 14]"] ;
708 -> 710 ;
711 [label="gini = 0.238\nsamples = 29\nvalue = [25, 4]"] ;
710 -> 711 ;
712 [label="gini = 0.437\nsamples = 31\nvalue = [21, 10]"] ;
710 -> 712 ;
713 [label="gini = 0.5\nsamples = 46\nvalue = [23, 23]"] ;
707 -> 713 ;
714 [label="X[20224] <= 0.5\ngini = 0.433\nsamples = 1081\nvalue = [342, 739]"] ;
20 -> 714 ;
715 [label="X[20230] <= 0.5\ngini = 0.376\nsamples = 773\nvalue = [194, 579]"] ;
714 -> 715 ;
716 [label="X[20223] <= 0.5\ngini = 0.347\nsamples = 715\nvalue = [160, 555]"] ;
715 -> 716 ;
717 [label="X[8957] <= 0.5\ngini = 0.33\nsamples = 677\nvalue = [141, 536]"] ;
716 -> 717 ;
718 [label="X[8713] <= 0.5\ngini = 0.35\nsamples = 619\nvalue = [140, 479]"] ;
717 -> 718 ;
719 [label="X[20231] <= 0.5\ngini = 0.336\nsamples = 586\nvalue = [125, 461]"] ;
718 -> 719 ;
720 [label="X[20236] <= 0.5\ngini = 0.32\nsamples = 550\nvalue = [110, 440]"] ;
719 -> 720 ;
721 [label="X[8712] <= 0.5\ngini = 0.304\nsamples = 514\nvalue = [96, 418]"] ;
720 -> 721 ;
722 [label="X[20237] <= 4.5\ngini = 0.289\nsamples = 473\nvalue = [83, 390]"] ;
721 -> 722 ;
723 [label="gini = 0.408\nsamples = 49\nvalue = [14, 35]"] ;
722 -> 723 ;
724 [label="X[20218] <= 0.5\ngini = 0.273\nsamples = 424\nvalue = [69, 355]"] ;
722 -> 724 ;
725 [label="X[213] <= 0.5\ngini = 0.254\nsamples = 388\nvalue = [58, 330]"] ;
724 -> 725 ;
726 [label="X[20237] <= 5.5\ngini = 0.328\nsamples = 179\nvalue = [37, 142]"] ;
725 -> 726 ;
727 [label="gini = 0.433\nsamples = 41\nvalue = [13, 28]"] ;
726 -> 727 ;
728 [label="X[219] <= 0.5\ngini = 0.287\nsamples = 138\nvalue = [24, 114]"] ;
726 -> 728 ;
729 [label="X[20214] <= 0.5\ngini = 0.235\nsamples = 103\nvalue = [14, 89]"] ;
728 -> 729 ;
730 [label="X[20237] <= 6.5\ngini = 0.296\nsamples = 72\nvalue = [13, 59]"] ;
729 -> 730 ;
731 [label="gini = 0.32\nsamples = 25\nvalue = [5, 20]"] ;
730 -> 731 ;
732 [label="gini = 0.282\nsamples = 47\nvalue = [8, 39]"] ;
730 -> 732 ;
733 [label="gini = 0.062\nsamples = 31\nvalue = [1, 30]"] ;
729 -> 733 ;
734 [label="gini = 0.408\nsamples = 35\nvalue = [10, 25]"] ;
728 -> 734 ;
735 [label="X[20225] <= 0.5\ngini = 0.181\nsamples = 209\nvalue = [21, 188]"] ;
725 -> 735 ;
736 [label="X[20237] <= 7.5\ngini = 0.23\nsamples = 151\nvalue = [20, 131]"] ;
735 -> 736 ;
737 [label="X[20237] <= 6.5\ngini = 0.167\nsamples = 120\nvalue = [11, 109]"] ;
736 -> 737 ;
738 [label="X[20237] <= 5.5\ngini = 0.134\nsamples = 83\nvalue = [6, 77]"] ;
737 -> 738 ;
739 [label="gini = 0.153\nsamples = 36\nvalue = [3, 33]"] ;
738 -> 739 ;
740 [label="gini = 0.12\nsamples = 47\nvalue = [3, 44]"] ;
738 -> 740 ;
741 [label="gini = 0.234\nsamples = 37\nvalue = [5, 32]"] ;
737 -> 741 ;
742 [label="gini = 0.412\nsamples = 31\nvalue = [9, 22]"] ;
736 -> 742 ;
743 [label="X[20237] <= 6.5\ngini = 0.034\nsamples = 58\nvalue = [1, 57]"] ;
735 -> 743 ;
744 [label="gini = 0.071\nsamples = 27\nvalue = [1, 26]"] ;
743 -> 744 ;
745 [label="gini = 0.0\nsamples = 31\nvalue = [0, 31]"] ;
743 -> 745 ;
746 [label="gini = 0.424\nsamples = 36\nvalue = [11, 25]"] ;
724 -> 746 ;
747 [label="gini = 0.433\nsamples = 41\nvalue = [13, 28]"] ;
721 -> 747 ;
748 [label="gini = 0.475\nsamples = 36\nvalue = [14, 22]"] ;
720 -> 748 ;
749 [label="gini = 0.486\nsamples = 36\nvalue = [15, 21]"] ;
719 -> 749 ;
750 [label="gini = 0.496\nsamples = 33\nvalue = [15, 18]"] ;
718 -> 750 ;
751 [label="gini = 0.034\nsamples = 58\nvalue = [1, 57]"] ;
717 -> 751 ;
752 [label="gini = 0.5\nsamples = 38\nvalue = [19, 19]"] ;
716 -> 752 ;
753 [label="X[20237] <= 7.5\ngini = 0.485\nsamples = 58\nvalue = [34, 24]"] ;
715 -> 753 ;
754 [label="gini = 0.464\nsamples = 30\nvalue = [11, 19]"] ;
753 -> 754 ;
755 [label="gini = 0.293\nsamples = 28\nvalue = [23, 5]"] ;
753 -> 755 ;
756 [label="X[8863] <= 0.5\ngini = 0.499\nsamples = 308\nvalue = [148, 160]"] ;
714 -> 756 ;
757 [label="X[20237] <= 5.5\ngini = 0.478\nsamples = 203\nvalue = [123, 80]"] ;
756 -> 757 ;
758 [label="gini = 0.453\nsamples = 26\nvalue = [9, 17]"] ;
757 -> 758 ;
759 [label="X[213] <= 0.5\ngini = 0.458\nsamples = 177\nvalue = [114, 63]"] ;
757 -> 759 ;
760 [label="X[8646] <= 0.5\ngini = 0.489\nsamples = 66\nvalue = [38, 28]"] ;
759 -> 760 ;
761 [label="gini = 0.498\nsamples = 32\nvalue = [17, 15]"] ;
760 -> 761 ;
762 [label="gini = 0.472\nsamples = 34\nvalue = [21, 13]"] ;
760 -> 762 ;
763 [label="X[20237] <= 6.5\ngini = 0.432\nsamples = 111\nvalue = [76, 35]"] ;
759 -> 763 ;
764 [label="gini = 0.408\nsamples = 42\nvalue = [30, 12]"] ;
763 -> 764 ;
765 [label="X[8708] <= 0.5\ngini = 0.444\nsamples = 69\nvalue = [46, 23]"] ;
763 -> 765 ;
766 [label="gini = 0.492\nsamples = 32\nvalue = [18, 14]"] ;
765 -> 766 ;
767 [label="gini = 0.368\nsamples = 37\nvalue = [28, 9]"] ;
765 -> 767 ;
768 [label="X[213] <= 0.5\ngini = 0.363\nsamples = 105\nvalue = [25, 80]"] ;
756 -> 768 ;
769 [label="gini = 0.307\nsamples = 37\nvalue = [7, 30]"] ;
768 -> 769 ;
770 [label="X[20237] <= 6.5\ngini = 0.389\nsamples = 68\nvalue = [18, 50]"] ;
768 -> 770 ;
771 [label="gini = 0.313\nsamples = 36\nvalue = [7, 29]"] ;
770 -> 771 ;
772 [label="gini = 0.451\nsamples = 32\nvalue = [11, 21]"] ;
770 -> 772 ;
773 [label="gini = 0.0\nsamples = 30\nvalue = [30, 0]"] ;
19 -> 773 ;
774 [label="gini = 0.142\nsamples = 39\nvalue = [36, 3]"] ;
18 -> 774 ;
775 [label="X[20237] <= 6.5\ngini = 0.41\nsamples = 80\nvalue = [57, 23]"] ;
17 -> 775 ;
776 [label="gini = 0.482\nsamples = 32\nvalue = [19, 13]"] ;
775 -> 776 ;
777 [label="gini = 0.33\nsamples = 48\nvalue = [38, 10]"] ;
775 -> 777 ;
778 [label="gini = 0.378\nsamples = 95\nvalue = [71, 24]"] ;
16 -> 778 ;
779 [label="X[11795] <= 0.5\ngini = 0.462\nsamples = 1113\nvalue = [403, 710]"] ;
15 -> 779 ;
780 [label="X[19389] <= 0.5\ngini = 0.447\nsamples = 1068\nvalue = [360, 708]"] ;
779 -> 780 ;
781 [label="X[8517] <= 0.5\ngini = 0.461\nsamples = 987\nvalue = [355, 632]"] ;
780 -> 781 ;
782 [label="X[14968] <= 0.5\ngini = 0.471\nsamples = 920\nvalue = [350, 570]"] ;
781 -> 782 ;
783 [label="X[20237] <= 6.5\ngini = 0.455\nsamples = 781\nvalue = [273, 508]"] ;
782 -> 783 ;
784 [label="X[17503] <= 0.5\ngini = 0.389\nsamples = 428\nvalue = [113, 315]"] ;
783 -> 784 ;
785 [label="X[8524] <= 0.5\ngini = 0.335\nsamples = 357\nvalue = [76, 281]"] ;
784 -> 785 ;
786 [label="X[8514] <= 0.5\ngini = 0.35\nsamples = 318\nvalue = [72, 246]"] ;
785 -> 786 ;
787 [label="X[8523] <= 0.5\ngini = 0.369\nsamples = 279\nvalue = [68, 211]"] ;
786 -> 787 ;
788 [label="X[10943] <= 0.5\ngini = 0.381\nsamples = 250\nvalue = [64, 186]"] ;
787 -> 788 ;
789 [label="X[20237] <= 5.5\ngini = 0.399\nsamples = 218\nvalue = [60, 158]"] ;
788 -> 789 ;
790 [label="X[13755] <= 0.5\ngini = 0.362\nsamples = 118\nvalue = [28, 90]"] ;
789 -> 790 ;
791 [label="gini = 0.375\nsamples = 76\nvalue = [19, 57]"] ;
790 -> 791 ;
792 [label="gini = 0.337\nsamples = 42\nvalue = [9, 33]"] ;
790 -> 792 ;
793 [label="gini = 0.435\nsamples = 100\nvalue = [32, 68]"] ;
789 -> 793 ;
794 [label="gini = 0.219\nsamples = 32\nvalue = [4, 28]"] ;
788 -> 794 ;
795 [label="gini = 0.238\nsamples = 29\nvalue = [4, 25]"] ;
787 -> 795 ;
796 [label="gini = 0.184\nsamples = 39\nvalue = [4, 35]"] ;
786 -> 796 ;
797 [label="gini = 0.184\nsamples = 39\nvalue = [4, 35]"] ;
785 -> 797 ;
798 [label="X[20237] <= 5.5\ngini = 0.499\nsamples = 71\nvalue = [37, 34]"] ;
784 -> 798 ;
799 [label="gini = 0.5\nsamples = 28\nvalue = [14, 14]"] ;
798 -> 799 ;
800 [label="gini = 0.498\nsamples = 43\nvalue = [23, 20]"] ;
798 -> 800 ;
801 [label="X[8524] <= 0.5\ngini = 0.496\nsamples = 353\nvalue = [160, 193]"] ;
783 -> 801 ;
802 [label="X[20237] <= 10.5\ngini = 0.486\nsamples = 314\nvalue = [131, 183]"] ;
801 -> 802 ;
803 [label="X[8515] <= 0.5\ngini = 0.495\nsamples = 288\nvalue = [129, 159]"] ;
802 -> 803 ;
804 [label="X[8516] <= 0.5\ngini = 0.499\nsamples = 253\nvalue = [122, 131]"] ;
803 -> 804 ;
805 [label="X[20237] <= 7.5\ngini = 0.498\nsamples = 215\nvalue = [101, 114]"] ;
804 -> 805 ;
806 [label="X[8523] <= 0.5\ngini = 0.492\nsamples = 135\nvalue = [59, 76]"] ;
805 -> 806 ;
807 [label="gini = 0.489\nsamples = 101\nvalue = [43, 58]"] ;
806 -> 807 ;
808 [label="gini = 0.498\nsamples = 34\nvalue = [16, 18]"] ;
806 -> 808 ;
809 [label="X[20237] <= 8.5\ngini = 0.499\nsamples = 80\nvalue = [42, 38]"] ;
805 -> 809 ;
810 [label="gini = 0.498\nsamples = 49\nvalue = [26, 23]"] ;
809 -> 810 ;
811 [label="gini = 0.499\nsamples = 31\nvalue = [16, 15]"] ;
809 -> 811 ;
812 [label="gini = 0.494\nsamples = 38\nvalue = [21, 17]"] ;
804 -> 812 ;
813 [label="gini = 0.32\nsamples = 35\nvalue = [7, 28]"] ;
803 -> 813 ;
814 [label="gini = 0.142\nsamples = 26\nvalue = [2, 24]"] ;
802 -> 814 ;
815 [label="gini = 0.381\nsamples = 39\nvalue = [29, 10]"] ;
801 -> 815 ;
816 [label="X[20237] <= 5.5\ngini = 0.494\nsamples = 139\nvalue = [77, 62]"] ;
782 -> 816 ;
817 [label="gini = 0.499\nsamples = 29\nvalue = [14, 15]"] ;
816 -> 817 ;
818 [label="gini = 0.489\nsamples = 110\nvalue = [63, 47]"] ;
816 -> 818 ;
819 [label="gini = 0.138\nsamples = 67\nvalue = [5, 62]"] ;
781 -> 819 ;
820 [label="X[20237] <= 5.5\ngini = 0.116\nsamples = 81\nvalue = [5, 76]"] ;
780 -> 820 ;
821 [label="gini = 0.137\nsamples = 27\nvalue = [2, 25]"] ;
820 -> 821 ;
822 [label="gini = 0.105\nsamples = 54\nvalue = [3, 51]"] ;
820 -> 822 ;
823 [label="gini = 0.085\nsamples = 45\nvalue = [43, 2]"] ;
779 -> 823 ;
824 [label="X[19400] <= 0.5\ngini = 0.495\nsamples = 579\nvalue = [262, 317]"] ;
14 -> 824 ;
825 [label="X[8533] <= 0.5\ngini = 0.498\nsamples = 546\nvalue = [258, 288]"] ;
824 -> 825 ;
826 [label="X[20237] <= 7.5\ngini = 0.5\nsamples = 508\nvalue = [249, 259]"] ;
825 -> 826 ;
827 [label="X[20237] <= 6.5\ngini = 0.499\nsamples = 394\nvalue = [204, 190]"] ;
826 -> 827 ;
828 [label="X[8514] <= 0.5\ngini = 0.499\nsamples = 256\nvalue = [121, 135]"] ;
827 -> 828 ;
829 [label="X[17521] <= 0.5\ngini = 0.495\nsamples = 224\nvalue = [101, 123]"] ;
828 -> 829 ;
830 [label="X[16090] <= 0.5\ngini = 0.498\nsamples = 177\nvalue = [83, 94]"] ;
829 -> 830 ;
831 [label="X[14995] <= 0.5\ngini = 0.496\nsamples = 149\nvalue = [68, 81]"] ;
830 -> 831 ;
832 [label="X[20237] <= 5.5\ngini = 0.494\nsamples = 110\nvalue = [49, 61]"] ;
831 -> 832 ;
833 [label="gini = 0.493\nsamples = 43\nvalue = [19, 24]"] ;
832 -> 833 ;
834 [label="gini = 0.495\nsamples = 67\nvalue = [30, 37]"] ;
832 -> 834 ;
835 [label="gini = 0.5\nsamples = 39\nvalue = [19, 20]"] ;
831 -> 835 ;
836 [label="gini = 0.497\nsamples = 28\nvalue = [15, 13]"] ;
830 -> 836 ;
837 [label="gini = 0.473\nsamples = 47\nvalue = [18, 29]"] ;
829 -> 837 ;
838 [label="gini = 0.469\nsamples = 32\nvalue = [20, 12]"] ;
828 -> 838 ;
839 [label="X[8514] <= 0.5\ngini = 0.479\nsamples = 138\nvalue = [83, 55]"] ;
827 -> 839 ;
840 [label="gini = 0.482\nsamples = 111\nvalue = [66, 45]"] ;
839 -> 840 ;
841 [label="gini = 0.466\nsamples = 27\nvalue = [17, 10]"] ;
839 -> 841 ;
842 [label="X[20237] <= 8.5\ngini = 0.478\nsamples = 114\nvalue = [45, 69]"] ;
826 -> 842 ;
843 [label="gini = 0.485\nsamples = 75\nvalue = [31, 44]"] ;
842 -> 843 ;
844 [label="gini = 0.46\nsamples = 39\nvalue = [14, 25]"] ;
842 -> 844 ;
845 [label="gini = 0.361\nsamples = 38\nvalue = [9, 29]"] ;
825 -> 845 ;
846 [label="gini = 0.213\nsamples = 33\nvalue = [4, 29]"] ;
824 -> 846 ;
847 [label="X[20237] <= 5.5\ngini = 0.41\nsamples = 139\nvalue = [99, 40]"] ;
13 -> 847 ;
848 [label="gini = 0.492\nsamples = 48\nvalue = [21, 27]"] ;
847 -> 848 ;
849 [label="X[20237] <= 6.5\ngini = 0.245\nsamples = 91\nvalue = [78, 13]"] ;
847 -> 849 ;
850 [label="gini = 0.222\nsamples = 63\nvalue = [55, 8]"] ;
849 -> 850 ;
851 [label="gini = 0.293\nsamples = 28\nvalue = [23, 5]"] ;
849 -> 851 ;
852 [label="X[20237] <= 5.5\ngini = 0.465\nsamples = 204\nvalue = [129, 75]"] ;
12 -> 852 ;
853 [label="gini = 0.487\nsamples = 55\nvalue = [32, 23]"] ;
852 -> 853 ;
854 [label="X[20237] <= 7.5\ngini = 0.454\nsamples = 149\nvalue = [97, 52]"] ;
852 -> 854 ;
855 [label="X[20237] <= 6.5\ngini = 0.438\nsamples = 111\nvalue = [75, 36]"] ;
854 -> 855 ;
856 [label="gini = 0.441\nsamples = 73\nvalue = [49, 24]"] ;
855 -> 856 ;
857 [label="gini = 0.432\nsamples = 38\nvalue = [26, 12]"] ;
855 -> 857 ;
858 [label="gini = 0.488\nsamples = 38\nvalue = [22, 16]"] ;
854 -> 858 ;
859 [label="X[20237] <= 6.5\ngini = 0.327\nsamples = 107\nvalue = [85, 22]"] ;
11 -> 859 ;
860 [label="X[20237] <= 5.5\ngini = 0.444\nsamples = 54\nvalue = [36, 18]"] ;
859 -> 860 ;
861 [label="gini = 0.466\nsamples = 27\nvalue = [17, 10]"] ;
860 -> 861 ;
862 [label="gini = 0.417\nsamples = 27\nvalue = [19, 8]"] ;
860 -> 862 ;
863 [label="gini = 0.14\nsamples = 53\nvalue = [49, 4]"] ;
859 -> 863 ;
864 [label="X[20237] <= 7.5\ngini = 0.489\nsamples = 317\nvalue = [182, 135]"] ;
10 -> 864 ;
865 [label="X[20237] <= 5.5\ngini = 0.498\nsamples = 204\nvalue = [96, 108]"] ;
864 -> 865 ;
866 [label="gini = 0.398\nsamples = 51\nvalue = [14, 37]"] ;
865 -> 866 ;
867 [label="X[12380] <= 0.5\ngini = 0.497\nsamples = 153\nvalue = [82, 71]"] ;
865 -> 867 ;
868 [label="X[20237] <= 6.5\ngini = 0.5\nsamples = 123\nvalue = [61, 62]"] ;
867 -> 868 ;
869 [label="gini = 0.486\nsamples = 36\nvalue = [15, 21]"] ;
868 -> 869 ;
870 [label="gini = 0.498\nsamples = 87\nvalue = [46, 41]"] ;
868 -> 870 ;
871 [label="gini = 0.42\nsamples = 30\nvalue = [21, 9]"] ;
867 -> 871 ;
872 [label="X[8518] <= 0.5\ngini = 0.364\nsamples = 113\nvalue = [86, 27]"] ;
864 -> 872 ;
873 [label="X[20237] <= 8.5\ngini = 0.41\nsamples = 87\nvalue = [62, 25]"] ;
872 -> 873 ;
874 [label="gini = 0.435\nsamples = 47\nvalue = [32, 15]"] ;
873 -> 874 ;
875 [label="gini = 0.375\nsamples = 40\nvalue = [30, 10]"] ;
873 -> 875 ;
876 [label="gini = 0.142\nsamples = 26\nvalue = [24, 2]"] ;
872 -> 876 ;
877 [label="gini = 0.0\nsamples = 80\nvalue = [80, 0]"] ;
9 -> 877 ;
878 [label="X[304] <= 0.5\ngini = 0.478\nsamples = 2703\nvalue = [1070, 1633]"] ;
8 -> 878 ;
879 [label="X[42] <= 0.5\ngini = 0.471\nsamples = 2587\nvalue = [984, 1603]"] ;
878 -> 879 ;
880 [label="X[12965] <= 0.5\ngini = 0.465\nsamples = 2513\nvalue = [925, 1588]"] ;
879 -> 880 ;
881 [label="X[2] <= 0.5\ngini = 0.461\nsamples = 2475\nvalue = [894, 1581]"] ;
880 -> 881 ;
882 [label="X[157] <= 0.5\ngini = 0.458\nsamples = 2442\nvalue = [869, 1573]"] ;
881 -> 882 ;
883 [label="X[13494] <= 0.5\ngini = 0.464\nsamples = 2317\nvalue = [846, 1471]"] ;
882 -> 883 ;
884 [label="X[9238] <= 0.5\ngini = 0.468\nsamples = 2211\nvalue = [826, 1385]"] ;
883 -> 884 ;
885 [label="X[8517] <= 0.5\ngini = 0.47\nsamples = 2186\nvalue = [826, 1360]"] ;
884 -> 885 ;
886 [label="X[20237] <= 9.5\ngini = 0.475\nsamples = 2028\nvalue = [789, 1239]"] ;
885 -> 886 ;
887 [label="X[8765] <= 0.5\ngini = 0.479\nsamples = 1917\nvalue = [763, 1154]"] ;
886 -> 887 ;
888 [label="X[20237] <= 4.5\ngini = 0.484\nsamples = 1736\nvalue = [713, 1023]"] ;
887 -> 888 ;
889 [label="X[20237] <= 3.5\ngini = 0.389\nsamples = 159\nvalue = [42, 117]"] ;
888 -> 889 ;
890 [label="gini = 0.252\nsamples = 27\nvalue = [4, 23]"] ;
889 -> 890 ;
891 [label="X[11735] <= 0.5\ngini = 0.41\nsamples = 132\nvalue = [38, 94]"] ;
889 -> 891 ;
892 [label="gini = 0.418\nsamples = 84\nvalue = [25, 59]"] ;
891 -> 892 ;
893 [label="gini = 0.395\nsamples = 48\nvalue = [13, 35]"] ;
891 -> 893 ;
894 [label="X[17367] <= 0.5\ngini = 0.489\nsamples = 1577\nvalue = [671, 906]"] ;
888 -> 894 ;
895 [label="X[17362] <= 0.5\ngini = 0.491\nsamples = 1524\nvalue = [662, 862]"] ;
894 -> 895 ;
896 [label="X[8520] <= 0.5\ngini = 0.493\nsamples = 1487\nvalue = [654, 833]"] ;
895 -> 896 ;
897 [label="X[8522] <= 0.5\ngini = 0.491\nsamples = 1413\nvalue = [610, 803]"] ;
896 -> 897 ;
898 [label="X[12960] <= 0.5\ngini = 0.489\nsamples = 1369\nvalue = [582, 787]"] ;
897 -> 898 ;
899 [label="X[213] <= 0.5\ngini = 0.487\nsamples = 1337\nvalue = [561, 776]"] ;
898 -> 899 ;
900 [label="X[9003] <= 0.5\ngini = 0.484\nsamples = 1255\nvalue = [516, 739]"] ;
899 -> 900 ;
901 [label="X[8529] <= 0.5\ngini = 0.482\nsamples = 1219\nvalue = [494, 725]"] ;
900 -> 901 ;
902 [label="X[15944] <= 0.5\ngini = 0.484\nsamples = 1190\nvalue = [488, 702]"] ;
901 -> 902 ;
903 [label="X[8516] <= 0.5\ngini = 0.481\nsamples = 1147\nvalue = [463, 684]"] ;
902 -> 903 ;
904 [label="X[15503] <= 0.5\ngini = 0.478\nsamples = 1069\nvalue = [423, 646]"] ;
903 -> 904 ;
905 [label="X[8518] <= 0.5\ngini = 0.481\nsamples = 1044\nvalue = [419, 625]"] ;
904 -> 905 ;
906 [label="X[8533] <= 0.5\ngini = 0.483\nsamples = 976\nvalue = [399, 577]"] ;
905 -> 906 ;
907 [label="X[11823] <= 0.5\ngini = 0.485\nsamples = 921\nvalue = [382, 539]"] ;
906 -> 907 ;
908 [label="X[170] <= 0.5\ngini = 0.482\nsamples = 807\nvalue = [326, 481]"] ;
907 -> 908 ;
909 [label="X[8524] <= 0.5\ngini = 0.484\nsamples = 782\nvalue = [321, 461]"] ;
908 -> 909 ;
910 [label="X[288] <= 0.5\ngini = 0.481\nsamples = 700\nvalue = [282, 418]"] ;
909 -> 910 ;
911 [label="X[8538] <= 0.5\ngini = 0.479\nsamples = 653\nvalue = [259, 394]"] ;
910 -> 911 ;
912 [label="X[8644] <= 0.5\ngini = 0.476\nsamples = 603\nvalue = [235, 368]"] ;
911 -> 912 ;
913 [label="X[161] <= 0.5\ngini = 0.47\nsamples = 460\nvalue = [174, 286]"] ;
912 -> 913 ;
914 [label="X[8515] <= 0.5\ngini = 0.466\nsamples = 430\nvalue = [159, 271]"] ;
913 -> 914 ;
915 [label="X[20237] <= 6.5\ngini = 0.461\nsamples = 402\nvalue = [145, 257]"] ;
914 -> 915 ;
916 [label="X[8706] <= 0.5\ngini = 0.476\nsamples = 202\nvalue = [79, 123]"] ;
915 -> 916 ;
917 [label="X[20237] <= 5.5\ngini = 0.401\nsamples = 54\nvalue = [15, 39]"] ;
916 -> 917 ;
918 [label="gini = 0.355\nsamples = 26\nvalue = [6, 20]"] ;
917 -> 918 ;
919 [label="gini = 0.436\nsamples = 28\nvalue = [9, 19]"] ;
917 -> 919 ;
920 [label="X[20237] <= 5.5\ngini = 0.491\nsamples = 148\nvalue = [64, 84]"] ;
916 -> 920 ;
921 [label="X[8514] <= 0.5\ngini = 0.459\nsamples = 73\nvalue = [26, 47]"] ;
920 -> 921 ;
922 [label="gini = 0.496\nsamples = 44\nvalue = [20, 24]"] ;
921 -> 922 ;
923 [label="gini = 0.328\nsamples = 29\nvalue = [6, 23]"] ;
921 -> 923 ;
924 [label="gini = 0.5\nsamples = 75\nvalue = [38, 37]"] ;
920 -> 924 ;
925 [label="X[8706] <= 0.5\ngini = 0.442\nsamples = 200\nvalue = [66, 134]"] ;
915 -> 925 ;
926 [label="X[20237] <= 7.5\ngini = 0.47\nsamples = 90\nvalue = [34, 56]"] ;
925 -> 926 ;
927 [label="gini = 0.47\nsamples = 61\nvalue = [23, 38]"] ;
926 -> 927 ;
928 [label="gini = 0.471\nsamples = 29\nvalue = [11, 18]"] ;
926 -> 928 ;
929 [label="X[20237] <= 7.5\ngini = 0.413\nsamples = 110\nvalue = [32, 78]"] ;
925 -> 929 ;
930 [label="gini = 0.425\nsamples = 75\nvalue = [23, 52]"] ;
929 -> 930 ;
931 [label="gini = 0.382\nsamples = 35\nvalue = [9, 26]"] ;
929 -> 931 ;
932 [label="gini = 0.5\nsamples = 28\nvalue = [14, 14]"] ;
914 -> 932 ;
933 [label="gini = 0.5\nsamples = 30\nvalue = [15, 15]"] ;
913 -> 933 ;
934 [label="X[20237] <= 6.5\ngini = 0.489\nsamples = 143\nvalue = [61, 82]"] ;
912 -> 934 ;
935 [label="X[20237] <= 5.5\ngini = 0.483\nsamples = 98\nvalue = [40, 58]"] ;
934 -> 935 ;
936 [label="gini = 0.484\nsamples = 56\nvalue = [23, 33]"] ;
935 -> 936 ;
937 [label="gini = 0.482\nsamples = 42\nvalue = [17, 25]"] ;
935 -> 937 ;
938 [label="gini = 0.498\nsamples = 45\nvalue = [21, 24]"] ;
934 -> 938 ;
939 [label="gini = 0.499\nsamples = 50\nvalue = [24, 26]"] ;
911 -> 939 ;
940 [label="gini = 0.5\nsamples = 47\nvalue = [23, 24]"] ;
910 -> 940 ;
941 [label="X[8706] <= 0.5\ngini = 0.499\nsamples = 82\nvalue = [39, 43]"] ;
909 -> 941 ;
942 [label="X[20237] <= 6.5\ngini = 0.489\nsamples = 54\nvalue = [31, 23]"] ;
941 -> 942 ;
943 [label="gini = 0.499\nsamples = 25\nvalue = [12, 13]"] ;
942 -> 943 ;
944 [label="gini = 0.452\nsamples = 29\nvalue = [19, 10]"] ;
942 -> 944 ;
945 [label="gini = 0.408\nsamples = 28\nvalue = [8, 20]"] ;
941 -> 945 ;
946 [label="gini = 0.32\nsamples = 25\nvalue = [5, 20]"] ;
908 -> 946 ;
947 [label="gini = 0.5\nsamples = 114\nvalue = [56, 58]"] ;
907 -> 947 ;
948 [label="X[8807] <= 0.5\ngini = 0.427\nsamples = 55\nvalue = [17, 38]"] ;
906 -> 948 ;
949 [label="gini = 0.493\nsamples = 25\nvalue = [11, 14]"] ;
948 -> 949 ;
950 [label="gini = 0.32\nsamples = 30\nvalue = [6, 24]"] ;
948 -> 950 ;
951 [label="X[8706] <= 0.5\ngini = 0.415\nsamples = 68\nvalue = [20, 48]"] ;
905 -> 951 ;
952 [label="gini = 0.484\nsamples = 34\nvalue = [14, 20]"] ;
951 -> 952 ;
953 [label="gini = 0.291\nsamples = 34\nvalue = [6, 28]"] ;
951 -> 953 ;
954 [label="gini = 0.269\nsamples = 25\nvalue = [4, 21]"] ;
904 -> 954 ;
955 [label="X[40] <= 0.5\ngini = 0.5\nsamples = 78\nvalue = [40, 38]"] ;
903 -> 955 ;
956 [label="gini = 0.484\nsamples = 51\nvalue = [30, 21]"] ;
955 -> 956 ;
957 [label="gini = 0.466\nsamples = 27\nvalue = [10, 17]"] ;
955 -> 957 ;
958 [label="gini = 0.487\nsamples = 43\nvalue = [25, 18]"] ;
902 -> 958 ;
959 [label="gini = 0.328\nsamples = 29\nvalue = [6, 23]"] ;
901 -> 959 ;
960 [label="gini = 0.475\nsamples = 36\nvalue = [22, 14]"] ;
900 -> 960 ;
961 [label="X[8706] <= 0.5\ngini = 0.495\nsamples = 82\nvalue = [45, 37]"] ;
899 -> 961 ;
962 [label="gini = 0.473\nsamples = 39\nvalue = [24, 15]"] ;
961 -> 962 ;
963 [label="gini = 0.5\nsamples = 43\nvalue = [21, 22]"] ;
961 -> 963 ;
964 [label="gini = 0.451\nsamples = 32\nvalue = [21, 11]"] ;
898 -> 964 ;
965 [label="gini = 0.463\nsamples = 44\nvalue = [28, 16]"] ;
897 -> 965 ;
966 [label="X[20237] <= 6.5\ngini = 0.482\nsamples = 74\nvalue = [44, 30]"] ;
896 -> 966 ;
967 [label="gini = 0.391\nsamples = 30\nvalue = [22, 8]"] ;
966 -> 967 ;
968 [label="gini = 0.5\nsamples = 44\nvalue = [22, 22]"] ;
966 -> 968 ;
969 [label="gini = 0.339\nsamples = 37\nvalue = [8, 29]"] ;
895 -> 969 ;
970 [label="gini = 0.282\nsamples = 53\nvalue = [9, 44]"] ;
894 -> 970 ;
971 [label="X[20237] <= 6.5\ngini = 0.4\nsamples = 181\nvalue = [50, 131]"] ;
887 -> 971 ;
972 [label="X[20237] <= 5.5\ngini = 0.38\nsamples = 141\nvalue = [36, 105]"] ;
971 -> 972 ;
973 [label="gini = 0.393\nsamples = 82\nvalue = [22, 60]"] ;
972 -> 973 ;
974 [label="gini = 0.362\nsamples = 59\nvalue = [14, 45]"] ;
972 -> 974 ;
975 [label="gini = 0.455\nsamples = 40\nvalue = [14, 26]"] ;
971 -> 975 ;
976 [label="X[8519] <= 0.5\ngini = 0.359\nsamples = 111\nvalue = [26, 85]"] ;
886 -> 976 ;
977 [label="X[20237] <= 11.5\ngini = 0.237\nsamples = 80\nvalue = [11, 69]"] ;
976 -> 977 ;
978 [label="gini = 0.237\nsamples = 51\nvalue = [7, 44]"] ;
977 -> 978 ;
979 [label="gini = 0.238\nsamples = 29\nvalue = [4, 25]"] ;
977 -> 979 ;
980 [label="gini = 0.499\nsamples = 31\nvalue = [15, 16]"] ;
976 -> 980 ;
981 [label="X[20237] <= 6.5\ngini = 0.359\nsamples = 158\nvalue = [37, 121]"] ;
885 -> 981 ;
982 [label="X[54] <= 0.5\ngini = 0.275\nsamples = 91\nvalue = [15, 76]"] ;
981 -> 982 ;
983 [label="X[20237] <= 5.5\ngini = 0.201\nsamples = 53\nvalue = [6, 47]"] ;
982 -> 983 ;
984 [label="gini = 0.204\nsamples = 26\nvalue = [3, 23]"] ;
983 -> 984 ;
985 [label="gini = 0.198\nsamples = 27\nvalue = [3, 24]"] ;
983 -> 985 ;
986 [label="gini = 0.361\nsamples = 38\nvalue = [9, 29]"] ;
982 -> 986 ;
987 [label="X[54] <= 0.5\ngini = 0.441\nsamples = 67\nvalue = [22, 45]"] ;
981 -> 987 ;
988 [label="gini = 0.483\nsamples = 27\nvalue = [11, 16]"] ;
987 -> 988 ;
989 [label="gini = 0.399\nsamples = 40\nvalue = [11, 29]"] ;
987 -> 989 ;
990 [label="gini = 0.0\nsamples = 25\nvalue = [0, 25]"] ;
884 -> 990 ;
991 [label="gini = 0.306\nsamples = 106\nvalue = [20, 86]"] ;
883 -> 991 ;
992 [label="X[20237] <= 6.5\ngini = 0.3\nsamples = 125\nvalue = [23, 102]"] ;
882 -> 992 ;
993 [label="X[8706] <= 0.5\ngini = 0.327\nsamples = 68\nvalue = [14, 54]"] ;
992 -> 993 ;
994 [label="gini = 0.234\nsamples = 37\nvalue = [5, 32]"] ;
993 -> 994 ;
995 [label="gini = 0.412\nsamples = 31\nvalue = [9, 22]"] ;
993 -> 995 ;
996 [label="X[8706] <= 0.5\ngini = 0.266\nsamples = 57\nvalue = [9, 48]"] ;
992 -> 996 ;
997 [label="gini = 0.403\nsamples = 25\nvalue = [7, 18]"] ;
996 -> 997 ;
998 [label="gini = 0.117\nsamples = 32\nvalue = [2, 30]"] ;
996 -> 998 ;
999 [label="gini = 0.367\nsamples = 33\nvalue = [25, 8]"] ;
881 -> 999 ;
1000 [label="gini = 0.301\nsamples = 38\nvalue = [31, 7]"] ;
880 -> 1000 ;
1001 [label="X[20237] <= 7.5\ngini = 0.323\nsamples = 74\nvalue = [59, 15]"] ;
879 -> 1001 ;
1002 [label="gini = 0.301\nsamples = 38\nvalue = [31, 7]"] ;
1001 -> 1002 ;
1003 [label="gini = 0.346\nsamples = 36\nvalue = [28, 8]"] ;
1001 -> 1003 ;
1004 [label="X[20237] <= 6.5\ngini = 0.383\nsamples = 116\nvalue = [86, 30]"] ;
878 -> 1004 ;
1005 [label="gini = 0.492\nsamples = 32\nvalue = [18, 14]"] ;
1004 -> 1005 ;
1006 [label="X[8706] <= 0.5\ngini = 0.308\nsamples = 84\nvalue = [68, 16]"] ;
1004 -> 1006 ;
1007 [label="X[20237] <= 7.5\ngini = 0.215\nsamples = 57\nvalue = [50, 7]"] ;
1006 -> 1007 ;
1008 [label="gini = 0.124\nsamples = 30\nvalue = [28, 2]"] ;
1007 -> 1008 ;
1009 [label="gini = 0.302\nsamples = 27\nvalue = [22, 5]"] ;
1007 -> 1009 ;
1010 [label="gini = 0.444\nsamples = 27\nvalue = [18, 9]"] ;
1006 -> 1010 ;
1011 [label="X[20237] <= 7.5\ngini = 0.155\nsamples = 213\nvalue = [195, 18]"] ;
7 -> 1011 ;
1012 [label="X[11634] <= 0.5\ngini = 0.35\nsamples = 53\nvalue = [41, 12]"] ;
1011 -> 1012 ;
1013 [label="gini = 0.48\nsamples = 25\nvalue = [15, 10]"] ;
1012 -> 1013 ;
1014 [label="gini = 0.133\nsamples = 28\nvalue = [26, 2]"] ;
1012 -> 1014 ;
1015 [label="X[14743] <= 0.5\ngini = 0.072\nsamples = 160\nvalue = [154, 6]"] ;
1011 -> 1015 ;
1016 [label="gini = 0.098\nsamples = 97\nvalue = [92, 5]"] ;
1015 -> 1016 ;
1017 [label="gini = 0.031\nsamples = 63\nvalue = [62, 1]"] ;
1015 -> 1017 ;
1018 [label="X[20237] <= 6.5\ngini = 0.35\nsamples = 999\nvalue = [773, 226]"] ;
6 -> 1018 ;
1019 [label="X[15317] <= 0.5\ngini = 0.465\nsamples = 491\nvalue = [310, 181]"] ;
1018 -> 1019 ;
1020 [label="X[17883] <= 0.5\ngini = 0.5\nsamples = 311\nvalue = [158, 153]"] ;
1019 -> 1020 ;
1021 [label="X[19458] <= 0.5\ngini = 0.495\nsamples = 250\nvalue = [112, 138]"] ;
1020 -> 1021 ;
1022 [label="X[8524] <= 0.5\ngini = 0.499\nsamples = 217\nvalue = [103, 114]"] ;
1021 -> 1022 ;
1023 [label="X[20237] <= 4.5\ngini = 0.5\nsamples = 187\nvalue = [94, 93]"] ;
1022 -> 1023 ;
1024 [label="gini = 0.488\nsamples = 26\nvalue = [11, 15]"] ;
1023 -> 1024 ;
1025 [label="X[11122] <= 0.5\ngini = 0.5\nsamples = 161\nvalue = [83, 78]"] ;
1023 -> 1025 ;
1026 [label="X[18899] <= 0.5\ngini = 0.497\nsamples = 121\nvalue = [65, 56]"] ;
1025 -> 1026 ;
1027 [label="X[20237] <= 5.5\ngini = 0.492\nsamples = 94\nvalue = [53, 41]"] ;
1026 -> 1027 ;
1028 [label="gini = 0.498\nsamples = 30\nvalue = [16, 14]"] ;
1027 -> 1028 ;
1029 [label="gini = 0.488\nsamples = 64\nvalue = [37, 27]"] ;
1027 -> 1029 ;
1030 [label="gini = 0.494\nsamples = 27\nvalue = [12, 15]"] ;
1026 -> 1030 ;
1031 [label="gini = 0.495\nsamples = 40\nvalue = [18, 22]"] ;
1025 -> 1031 ;
1032 [label="gini = 0.42\nsamples = 30\nvalue = [9, 21]"] ;
1022 -> 1032 ;
1033 [label="gini = 0.397\nsamples = 33\nvalue = [9, 24]"] ;
1021 -> 1033 ;
1034 [label="gini = 0.371\nsamples = 61\nvalue = [46, 15]"] ;
1020 -> 1034 ;
1035 [label="X[8514] <= 0.5\ngini = 0.263\nsamples = 180\nvalue = [152, 28]"] ;
1019 -> 1035 ;
1036 [label="X[20237] <= 5.5\ngini = 0.292\nsamples = 152\nvalue = [125, 27]"] ;
1035 -> 1036 ;
1037 [label="gini = 0.285\nsamples = 29\nvalue = [24, 5]"] ;
1036 -> 1037 ;
1038 [label="gini = 0.294\nsamples = 123\nvalue = [101, 22]"] ;
1036 -> 1038 ;
1039 [label="gini = 0.069\nsamples = 28\nvalue = [27, 1]"] ;
1035 -> 1039 ;
1040 [label="X[8515] <= 0.5\ngini = 0.161\nsamples = 508\nvalue = [463, 45]"] ;
1018 -> 1040 ;
1041 [label="X[20237] <= 7.5\ngini = 0.136\nsamples = 464\nvalue = [430, 34]"] ;
1040 -> 1041 ;
1042 [label="X[9655] <= 0.5\ngini = 0.178\nsamples = 274\nvalue = [247, 27]"] ;
1041 -> 1042 ;
1043 [label="X[11890] <= 0.5\ngini = 0.203\nsamples = 235\nvalue = [208, 27]"] ;
1042 -> 1043 ;
1044 [label="X[13720] <= 0.5\ngini = 0.244\nsamples = 176\nvalue = [151, 25]"] ;
1043 -> 1044 ;
1045 [label="X[8524] <= 0.5\ngini = 0.282\nsamples = 147\nvalue = [122, 25]"] ;
1044 -> 1045 ;
1046 [label="gini = 0.305\nsamples = 117\nvalue = [95, 22]"] ;
1045 -> 1046 ;
1047 [label="gini = 0.18\nsamples = 30\nvalue = [27, 3]"] ;
1045 -> 1047 ;
1048 [label="gini = 0.0\nsamples = 29\nvalue = [29, 0]"] ;
1044 -> 1048 ;
1049 [label="gini = 0.065\nsamples = 59\nvalue = [57, 2]"] ;
1043 -> 1049 ;
1050 [label="gini = 0.0\nsamples = 39\nvalue = [39, 0]"] ;
1042 -> 1050 ;
1051 [label="X[8526] <= 0.5\ngini = 0.071\nsamples = 190\nvalue = [183, 7]"] ;
1041 -> 1051 ;
1052 [label="X[20237] <= 8.5\ngini = 0.082\nsamples = 164\nvalue = [157, 7]"] ;
1051 -> 1052 ;
1053 [label="X[8523] <= 0.5\ngini = 0.072\nsamples = 107\nvalue = [103, 4]"] ;
1052 -> 1053 ;
1054 [label="gini = 0.075\nsamples = 77\nvalue = [74, 3]"] ;
1053 -> 1054 ;
1055 [label="gini = 0.064\nsamples = 30\nvalue = [29, 1]"] ;
1053 -> 1055 ;
1056 [label="gini = 0.1\nsamples = 57\nvalue = [54, 3]"] ;
1052 -> 1056 ;
1057 [label="gini = 0.0\nsamples = 26\nvalue = [26, 0]"] ;
1051 -> 1057 ;
1058 [label="gini = 0.375\nsamples = 44\nvalue = [33, 11]"] ;
1040 -> 1058 ;
1059 [label="X[20237] <= 6.5\ngini = 0.216\nsamples = 902\nvalue = [791, 111]"] ;
5 -> 1059 ;
1060 [label="X[19911] <= 0.5\ngini = 0.414\nsamples = 226\nvalue = [160, 66]"] ;
1059 -> 1060 ;
1061 [label="X[9825] <= 0.5\ngini = 0.461\nsamples = 164\nvalue = [105, 59]"] ;
1060 -> 1061 ;
1062 [label="X[20237] <= 5.5\ngini = 0.495\nsamples = 80\nvalue = [36, 44]"] ;
1061 -> 1062 ;
1063 [label="gini = 0.495\nsamples = 42\nvalue = [19, 23]"] ;
1062 -> 1063 ;
1064 [label="gini = 0.494\nsamples = 38\nvalue = [17, 21]"] ;
1062 -> 1064 ;
1065 [label="X[20237] <= 5.5\ngini = 0.293\nsamples = 84\nvalue = [69, 15]"] ;
1061 -> 1065 ;
1066 [label="gini = 0.305\nsamples = 32\nvalue = [26, 6]"] ;
1065 -> 1066 ;
1067 [label="gini = 0.286\nsamples = 52\nvalue = [43, 9]"] ;
1065 -> 1067 ;
1068 [label="gini = 0.2\nsamples = 62\nvalue = [55, 7]"] ;
1060 -> 1068 ;
1069 [label="X[15321] <= 0.5\ngini = 0.124\nsamples = 676\nvalue = [631, 45]"] ;
1059 -> 1069 ;
1070 [label="X[20237] <= 7.5\ngini = 0.181\nsamples = 436\nvalue = [392, 44]"] ;
1069 -> 1070 ;
1071 [label="X[8523] <= 0.5\ngini = 0.328\nsamples = 145\nvalue = [115, 30]"] ;
1070 -> 1071 ;
1072 [label="gini = 0.338\nsamples = 116\nvalue = [91, 25]"] ;
1071 -> 1072 ;
1073 [label="gini = 0.285\nsamples = 29\nvalue = [24, 5]"] ;
1071 -> 1073 ;
1074 [label="X[20237] <= 8.5\ngini = 0.092\nsamples = 291\nvalue = [277, 14]"] ;
1070 -> 1074 ;
1075 [label="gini = 0.143\nsamples = 103\nvalue = [95, 8]"] ;
1074 -> 1075 ;
1076 [label="X[20237] <= 9.5\ngini = 0.062\nsamples = 188\nvalue = [182, 6]"] ;
1074 -> 1076 ;
1077 [label="gini = 0.081\nsamples = 119\nvalue = [114, 5]"] ;
1076 -> 1077 ;
1078 [label="gini = 0.029\nsamples = 69\nvalue = [68, 1]"] ;
1076 -> 1078 ;
1079 [label="X[20237] <= 7.5\ngini = 0.008\nsamples = 240\nvalue = [239, 1]"] ;
1069 -> 1079 ;
1080 [label="gini = 0.02\nsamples = 101\nvalue = [100, 1]"] ;
1079 -> 1080 ;
1081 [label="gini = 0.0\nsamples = 139\nvalue = [139, 0]"] ;
1079 -> 1081 ;
1082 [label="X[8815] <= 0.5\ngini = 0.464\nsamples = 3267\nvalue = [2070, 1197]"] ;
4 -> 1082 ;
1083 [label="X[8925] <= 0.5\ngini = 0.478\nsamples = 2838\nvalue = [1716, 1122]"] ;
1082 -> 1083 ;
1084 [label="X[8938] <= 0.5\ngini = 0.482\nsamples = 2749\nvalue = [1636, 1113]"] ;
1083 -> 1084 ;
1085 [label="X[10223] <= 0.5\ngini = 0.486\nsamples = 2617\nvalue = [1525, 1092]"] ;
1084 -> 1085 ;
1086 [label="X[304] <= 0.5\ngini = 0.484\nsamples = 2580\nvalue = [1518, 1062]"] ;
1085 -> 1086 ;
1087 [label="X[8873] <= 0.5\ngini = 0.487\nsamples = 2520\nvalue = [1464, 1056]"] ;
1086 -> 1087 ;
1088 [label="X[213] <= 0.5\ngini = 0.485\nsamples = 2469\nvalue = [1451, 1018]"] ;
1087 -> 1088 ;
1089 [label="X[180] <= 0.5\ngini = 0.488\nsamples = 2369\nvalue = [1369, 1000]"] ;
1088 -> 1089 ;
1090 [label="X[8848] <= 0.5\ngini = 0.49\nsamples = 2322\nvalue = [1326, 996]"] ;
1089 -> 1090 ;
1091 [label="X[409] <= 0.5\ngini = 0.495\nsamples = 1976\nvalue = [1089, 887]"] ;
1090 -> 1091 ;
1092 [label="X[8520] <= 0.5\ngini = 0.494\nsamples = 1940\nvalue = [1080, 860]"] ;
1091 -> 1092 ;
1093 [label="X[161] <= 0.5\ngini = 0.492\nsamples = 1877\nvalue = [1059, 818]"] ;
1092 -> 1093 ;
1094 [label="X[20237] <= 6.5\ngini = 0.49\nsamples = 1826\nvalue = [1043, 783]"] ;
1093 -> 1094 ;
1095 [label="X[8527] <= 0.5\ngini = 0.497\nsamples = 1187\nvalue = [639, 548]"] ;
1094 -> 1095 ;
1096 [label="X[15797] <= 0.5\ngini = 0.498\nsamples = 1149\nvalue = [608, 541]"] ;
1095 -> 1096 ;
1097 [label="X[8531] <= 0.5\ngini = 0.499\nsamples = 1118\nvalue = [582, 536]"] ;
1096 -> 1097 ;
1098 [label="X[8528] <= 0.5\ngini = 0.497\nsamples = 1024\nvalue = [549, 475]"] ;
1097 -> 1098 ;
1099 [label="X[48] <= 0.5\ngini = 0.496\nsamples = 996\nvalue = [543, 453]"] ;
1098 -> 1099 ;
1100 [label="X[8521] <= 0.5\ngini = 0.494\nsamples = 971\nvalue = [537, 434]"] ;
1099 -> 1100 ;
1101 [label="X[8517] <= 0.5\ngini = 0.492\nsamples = 916\nvalue = [517, 399]"] ;
1100 -> 1101 ;
1102 [label="X[8670] <= 0.5\ngini = 0.488\nsamples = 845\nvalue = [489, 356]"] ;
1101 -> 1102 ;
1103 [label="X[9021] <= 0.5\ngini = 0.485\nsamples = 810\nvalue = [476, 334]"] ;
1102 -> 1103 ;
1104 [label="X[8681] <= 0.5\ngini = 0.487\nsamples = 783\nvalue = [454, 329]"] ;
1103 -> 1104 ;
1105 [label="X[14884] <= 0.5\ngini = 0.49\nsamples = 738\nvalue = [422, 316]"] ;
1104 -> 1105 ;
1106 [label="X[8695] <= 0.5\ngini = 0.493\nsamples = 630\nvalue = [353, 277]"] ;
1105 -> 1106 ;
1107 [label="X[8524] <= 0.5\ngini = 0.496\nsamples = 522\nvalue = [285, 237]"] ;
1106 -> 1107 ;
1108 [label="X[8973] <= 0.5\ngini = 0.494\nsamples = 475\nvalue = [263, 212]"] ;
1107 -> 1108 ;
1109 [label="X[8518] <= 0.5\ngini = 0.496\nsamples = 448\nvalue = [245, 203]"] ;
1108 -> 1109 ;
1110 [label="X[20237] <= 5.5\ngini = 0.494\nsamples = 409\nvalue = [227, 182]"] ;
1109 -> 1110 ;
1111 [label="X[8523] <= 0.5\ngini = 0.484\nsamples = 219\nvalue = [129, 90]"] ;
1110 -> 1111 ;
1112 [label="X[8719] <= 0.5\ngini = 0.49\nsamples = 194\nvalue = [111, 83]"] ;
1111 -> 1112 ;
1113 [label="X[20237] <= 4.5\ngini = 0.495\nsamples = 135\nvalue = [74, 61]"] ;
1112 -> 1113 ;
1114 [label="gini = 0.47\nsamples = 37\nvalue = [23, 14]"] ;
1113 -> 1114 ;
1115 [label="X[8910] <= 0.5\ngini = 0.499\nsamples = 98\nvalue = [51, 47]"] ;
1113 -> 1115 ;
1116 [label="gini = 0.499\nsamples = 60\nvalue = [29, 31]"] ;
1115 -> 1116 ;
1117 [label="gini = 0.488\nsamples = 38\nvalue = [22, 16]"] ;
1115 -> 1117 ;
1118 [label="gini = 0.468\nsamples = 59\nvalue = [37, 22]"] ;
1112 -> 1118 ;
1119 [label="gini = 0.403\nsamples = 25\nvalue = [18, 7]"] ;
1111 -> 1119 ;
1120 [label="X[8657] <= 0.5\ngini = 0.5\nsamples = 190\nvalue = [98, 92]"] ;
1110 -> 1120 ;
1121 [label="X[8910] <= 0.5\ngini = 0.499\nsamples = 157\nvalue = [76, 81]"] ;
1120 -> 1121 ;
1122 [label="X[8719] <= 0.5\ngini = 0.498\nsamples = 120\nvalue = [56, 64]"] ;
1121 -> 1122 ;
1123 [label="gini = 0.492\nsamples = 32\nvalue = [14, 18]"] ;
1122 -> 1123 ;
1124 [label="X[15990] <= 0.5\ngini = 0.499\nsamples = 88\nvalue = [42, 46]"] ;
1122 -> 1124 ;
1125 [label="gini = 0.5\nsamples = 63\nvalue = [31, 32]"] ;
1124 -> 1125 ;
1126 [label="gini = 0.493\nsamples = 25\nvalue = [11, 14]"] ;
1124 -> 1126 ;
1127 [label="gini = 0.497\nsamples = 37\nvalue = [20, 17]"] ;
1121 -> 1127 ;
1128 [label="gini = 0.444\nsamples = 33\nvalue = [22, 11]"] ;
1120 -> 1128 ;
1129 [label="gini = 0.497\nsamples = 39\nvalue = [18, 21]"] ;
1109 -> 1129 ;
1130 [label="gini = 0.444\nsamples = 27\nvalue = [18, 9]"] ;
1108 -> 1130 ;
1131 [label="gini = 0.498\nsamples = 47\nvalue = [22, 25]"] ;
1107 -> 1131 ;
1132 [label="X[15898] <= 0.5\ngini = 0.466\nsamples = 108\nvalue = [68, 40]"] ;
1106 -> 1132 ;
1133 [label="gini = 0.477\nsamples = 74\nvalue = [45, 29]"] ;
1132 -> 1133 ;
1134 [label="gini = 0.438\nsamples = 34\nvalue = [23, 11]"] ;
1132 -> 1134 ;
1135 [label="gini = 0.461\nsamples = 108\nvalue = [69, 39]"] ;
1105 -> 1135 ;
1136 [label="gini = 0.411\nsamples = 45\nvalue = [32, 13]"] ;
1104 -> 1136 ;
1137 [label="gini = 0.302\nsamples = 27\nvalue = [22, 5]"] ;
1103 -> 1137 ;
1138 [label="gini = 0.467\nsamples = 35\nvalue = [13, 22]"] ;
1102 -> 1138 ;
1139 [label="X[8719] <= 0.5\ngini = 0.478\nsamples = 71\nvalue = [28, 43]"] ;
1101 -> 1139 ;
1140 [label="gini = 0.496\nsamples = 46\nvalue = [21, 25]"] ;
1139 -> 1140 ;
1141 [label="gini = 0.403\nsamples = 25\nvalue = [7, 18]"] ;
1139 -> 1141 ;
1142 [label="X[8719] <= 0.5\ngini = 0.463\nsamples = 55\nvalue = [20, 35]"] ;
1100 -> 1142 ;
1143 [label="gini = 0.444\nsamples = 30\nvalue = [10, 20]"] ;
1142 -> 1143 ;
1144 [label="gini = 0.48\nsamples = 25\nvalue = [10, 15]"] ;
1142 -> 1144 ;
1145 [label="gini = 0.365\nsamples = 25\nvalue = [6, 19]"] ;
1099 -> 1145 ;
1146 [label="gini = 0.337\nsamples = 28\nvalue = [6, 22]"] ;
1098 -> 1146 ;
1147 [label="X[296] <= 0.5\ngini = 0.456\nsamples = 94\nvalue = [33, 61]"] ;
1097 -> 1147 ;
1148 [label="X[8719] <= 0.5\ngini = 0.486\nsamples = 65\nvalue = [27, 38]"] ;
1147 -> 1148 ;
1149 [label="gini = 0.455\nsamples = 40\nvalue = [14, 26]"] ;
1148 -> 1149 ;
1150 [label="gini = 0.499\nsamples = 25\nvalue = [13, 12]"] ;
1148 -> 1150 ;
1151 [label="gini = 0.328\nsamples = 29\nvalue = [6, 23]"] ;
1147 -> 1151 ;
1152 [label="gini = 0.271\nsamples = 31\nvalue = [26, 5]"] ;
1096 -> 1152 ;
1153 [label="gini = 0.301\nsamples = 38\nvalue = [31, 7]"] ;
1095 -> 1153 ;
1154 [label="X[20237] <= 8.5\ngini = 0.465\nsamples = 639\nvalue = [404, 235]"] ;
1094 -> 1154 ;
1155 [label="X[8695] <= 0.5\ngini = 0.446\nsamples = 521\nvalue = [346, 175]"] ;
1154 -> 1155 ;
1156 [label="X[8719] <= 0.5\ngini = 0.46\nsamples = 486\nvalue = [312, 174]"] ;
1155 -> 1156 ;
1157 [label="X[8517] <= 0.5\ngini = 0.482\nsamples = 227\nvalue = [135, 92]"] ;
1156 -> 1157 ;
1158 [label="X[8657] <= 0.5\ngini = 0.468\nsamples = 190\nvalue = [119, 71]"] ;
1157 -> 1158 ;
1159 [label="X[8910] <= 0.5\ngini = 0.48\nsamples = 120\nvalue = [72, 48]"] ;
1158 -> 1159 ;
1160 [label="gini = 0.49\nsamples = 56\nvalue = [32, 24]"] ;
1159 -> 1160 ;
1161 [label="gini = 0.469\nsamples = 64\nvalue = [40, 24]"] ;
1159 -> 1161 ;
1162 [label="X[20237] <= 7.5\ngini = 0.441\nsamples = 70\nvalue = [47, 23]"] ;
1158 -> 1162 ;
1163 [label="gini = 0.444\nsamples = 45\nvalue = [30, 15]"] ;
1162 -> 1163 ;
1164 [label="gini = 0.435\nsamples = 25\nvalue = [17, 8]"] ;
1162 -> 1164 ;
1165 [label="gini = 0.491\nsamples = 37\nvalue = [16, 21]"] ;
1157 -> 1165 ;
1166 [label="X[18186] <= 0.5\ngini = 0.433\nsamples = 259\nvalue = [177, 82]"] ;
1156 -> 1166 ;
1167 [label="X[8515] <= 0.5\ngini = 0.419\nsamples = 224\nvalue = [157, 67]"] ;
1166 -> 1167 ;
1168 [label="X[20237] <= 7.5\ngini = 0.403\nsamples = 186\nvalue = [134, 52]"] ;
1167 -> 1168 ;
1169 [label="gini = 0.393\nsamples = 130\nvalue = [95, 35]"] ;
1168 -> 1169 ;
1170 [label="gini = 0.423\nsamples = 56\nvalue = [39, 17]"] ;
1168 -> 1170 ;
1171 [label="gini = 0.478\nsamples = 38\nvalue = [23, 15]"] ;
1167 -> 1171 ;
1172 [label="gini = 0.49\nsamples = 35\nvalue = [20, 15]"] ;
1166 -> 1172 ;
1173 [label="gini = 0.056\nsamples = 35\nvalue = [34, 1]"] ;
1155 -> 1173 ;
1174 [label="X[8657] <= 0.5\ngini = 0.5\nsamples = 118\nvalue = [58, 60]"] ;
1154 -> 1174 ;
1175 [label="X[20237] <= 9.5\ngini = 0.489\nsamples = 82\nvalue = [47, 35]"] ;
1174 -> 1175 ;
1176 [label="gini = 0.451\nsamples = 32\nvalue = [21, 11]"] ;
1175 -> 1176 ;
1177 [label="gini = 0.499\nsamples = 50\nvalue = [26, 24]"] ;
1175 -> 1177 ;
1178 [label="gini = 0.424\nsamples = 36\nvalue = [11, 25]"] ;
1174 -> 1178 ;
1179 [label="X[20237] <= 6.5\ngini = 0.431\nsamples = 51\nvalue = [16, 35]"] ;
1093 -> 1179 ;
1180 [label="gini = 0.499\nsamples = 25\nvalue = [12, 13]"] ;
1179 -> 1180 ;
1181 [label="gini = 0.26\nsamples = 26\nvalue = [4, 22]"] ;
1179 -> 1181 ;
1182 [label="gini = 0.444\nsamples = 63\nvalue = [21, 42]"] ;
1092 -> 1182 ;
1183 [label="gini = 0.375\nsamples = 36\nvalue = [9, 27]"] ;
1091 -> 1183 ;
1184 [label="X[8523] <= 0.5\ngini = 0.432\nsamples = 346\nvalue = [237, 109]"] ;
1090 -> 1184 ;
1185 [label="X[20237] <= 5.5\ngini = 0.395\nsamples = 303\nvalue = [221, 82]"] ;
1184 -> 1185 ;
1186 [label="X[16199] <= 0.5\ngini = 0.473\nsamples = 99\nvalue = [61, 38]"] ;
1185 -> 1186 ;
1187 [label="gini = 0.41\nsamples = 59\nvalue = [42, 17]"] ;
1186 -> 1187 ;
1188 [label="gini = 0.499\nsamples = 40\nvalue = [19, 21]"] ;
1186 -> 1188 ;
1189 [label="X[8515] <= 0.5\ngini = 0.338\nsamples = 204\nvalue = [160, 44]"] ;
1185 -> 1189 ;
1190 [label="X[8517] <= 0.5\ngini = 0.378\nsamples = 174\nvalue = [130, 44]"] ;
1189 -> 1190 ;
1191 [label="X[20237] <= 6.5\ngini = 0.413\nsamples = 144\nvalue = [102, 42]"] ;
1190 -> 1191 ;
1192 [label="gini = 0.308\nsamples = 42\nvalue = [34, 8]"] ;
1191 -> 1192 ;
1193 [label="X[20237] <= 9.5\ngini = 0.444\nsamples = 102\nvalue = [68, 34]"] ;
1191 -> 1193 ;
1194 [label="X[20237] <= 7.5\ngini = 0.419\nsamples = 67\nvalue = [47, 20]"] ;
1193 -> 1194 ;
1195 [label="gini = 0.46\nsamples = 39\nvalue = [25, 14]"] ;
1194 -> 1195 ;
1196 [label="gini = 0.337\nsamples = 28\nvalue = [22, 6]"] ;
1194 -> 1196 ;
1197 [label="gini = 0.48\nsamples = 35\nvalue = [21, 14]"] ;
1193 -> 1197 ;
1198 [label="gini = 0.124\nsamples = 30\nvalue = [28, 2]"] ;
1190 -> 1198 ;
1199 [label="gini = 0.0\nsamples = 30\nvalue = [30, 0]"] ;
1189 -> 1199 ;
1200 [label="gini = 0.467\nsamples = 43\nvalue = [16, 27]"] ;
1184 -> 1200 ;
1201 [label="gini = 0.156\nsamples = 47\nvalue = [43, 4]"] ;
1089 -> 1201 ;
